[-0.16476653516292572, 0.1806631088256836, 0.026099365204572678, 0.48112767934799194, 0.19655628502368927, 0.636070191860199, -0.048287224024534225, 0.2745341360569, -0.4763336479663849, 0.5849736332893372, -0.20017661154270172, 0.021772410720586777, -0.2573287785053253, 0.2794068455696106, -0.6572505235671997, 0.3424031734466553, -0.0745796486735344, -0.5535470843315125, 0.43478628993034363, 0.08631668984889984, 0.19967281818389893, 0.2680553197860718, 0.4763224422931671, 0.34741076827049255, 0.18841750919818878, 0.12261950969696045, 0.4024870991706848, -0.001971767283976078, 0.574371874332428, 0.23167362809181213, 0.3425031006336212, 0.05612678453326225, -0.18076689541339874, -0.09887146949768066, 0.23139669001102448, -0.674229085445404, 0.2824159860610962, -0.017437651753425598, 0.06312420219182968, -0.16567115485668182, 0.21285036206245422, 0.2709893584251404, 0.3941479027271271, -0.1497119963169098, 0.37482836842536926, -0.5365046262741089, 0.3351629674434662, -0.12761130928993225, 0.30802732706069946, 0.01769416220486164, 0.25912177562713623, -0.3749840557575226, 0.42557254433631897, -0.1892106682062149]
[0.014302700757980347, -0.04289929196238518, -0.005746840965002775, 0.017985327169299126, -0.012695525772869587, 0.015633106231689453]
[-0.1858402043581009, -0.06838922947645187, 0.0003103265189565718, 0.036771100014448166, 0.03784039244055748, -0.2815627157688141, 0.09999741613864899, 0.04606960713863373, -0.017182549461722374, -0.05036589503288269, 0.1614638864994049, -0.007644266355782747, 0.2864439785480499, 0.030457429587841034, -0.06571505963802338, -0.06504825502634048, -0.20157776772975922, 0.04012298583984375, 0.1017564982175827, 0.06044958159327507, -0.13451142609119415, -0.22998633980751038, -0.024771803990006447, -0.13633525371551514, 0.15239623188972473, 0.1506754457950592, 0.1185552254319191, 0.008446604013442993, 0.09925995767116547, 0.026065615937113762, -0.19981729984283447, -0.23238079249858856, -0.6320398449897766, -0.2761070430278778, -0.23589956760406494, -0.04864118620753288, 0.2920675277709961, -0.2735028564929962, -0.00534977437928319, 0.022441957145929337, 0.04826636612415314, 0.577758252620697, 0.2987341582775116, -0.2531410753726959, 0.7254238724708557, 0.09637082368135452, -0.15926878154277802, 0.19405390322208405, -0.053558431565761566, -0.08028899878263474, -0.19232651591300964, 0.12290279567241669, -0.1995600163936615, -0.17288418114185333, -0.15947197377681732, 0.20703326165676117, -0.22514759004116058, 0.10752598941326141, -0.09790249168872833, -0.19254577159881592, 0.3681985139846802, -0.03057093545794487, -0.08173052966594696, -0.2566274106502533, -0.29869329929351807, -0.16287454962730408, -0.0528058260679245, -0.13457678258419037, 0.19309496879577637, -0.1803378015756607, -0.04882720857858658, 0.009440786205232143, 0.060924287885427475, -0.04973598197102547, -0.04851279780268669, -0.08355629444122314, 0.047313690185546875, -0.145499587059021, 0.13378000259399414, -0.044624730944633484, 0.5234637260437012, -0.19451068341732025, -0.10643734037876129, 0.10770654678344727, 0.26986902952194214, 0.29995426535606384, 0.11455683410167694, -0.1169266328215599, 0.1796259582042694, -0.11246422678232193, 0.08347775787115097, 0.051262229681015015, -0.1819879114627838, 0.10000995546579361, 0.021620219573378563, -0.4954926073551178, 0.011054318398237228, -0.07838241010904312, -0.041817277669906616, -0.01653275080025196, -0.02826540917158127, -0.11267001181840897, 0.05638168379664421, -0.08058301359415054, 0.04568132758140564, -0.28218168020248413, -0.11737404018640518, 0.14976981282234192, 0.10504301637411118, 0.14857259392738342, 0.1532965898513794, -0.19127000868320465, -0.0017836479237303138, -0.07934652268886566, 0.20708297193050385, -0.10242905467748642, -0.15220050513744354, -0.0099871177226305, 0.022796891629695892, -0.029399046674370766, 0.034028466790914536, -0.20077963173389435, -0.18808969855308533, -0.03469870239496231, 0.22388365864753723, -0.1680687814950943, 0.11058834940195084, -0.2748089134693146, -0.2977583408355713, -0.15559262037277222, -0.14819908142089844, -0.01867527700960636, -0.05317703261971474, -0.7126598954200745, -0.06624807417392731, -0.006970119662582874, 0.043230410665273666, -0.08743134886026382, 0.13330721855163574, 0.03344040736556053, 0.59557044506073, -0.0006747318548150361, -0.5281805992126465, 0.3014465570449829, -0.06430739164352417, -0.09968974441289902, -0.26307016611099243, -0.019708968698978424, -0.13565966486930847, -0.34719204902648926, 0.05790865048766136, 0.18808814883232117, -0.21164263784885406, -0.2715643644332886, -0.03450121358036995, -0.054146818816661835, 0.2651955783367157, -0.0028622255194932222, 0.10190996527671814, -0.10274609923362732, -0.06025922670960426, -0.030092379078269005, 0.17490732669830322, 0.0431181974709034, 0.03616562858223915, -0.16274122893810272, 0.16100211441516876, 0.0003666302945930511, 0.05446242168545723, -0.35691922903060913, -0.20365892350673676, 0.0074982354417443275, 0.26070088148117065, -0.09712343662977219, 0.06939411163330078, -0.3163384199142456, 0.0042654904536902905, 0.3254818618297577, 0.28605151176452637, -0.03134220093488693, 0.35563430190086365, -0.35711950063705444, 0.26257461309432983, 0.02626757137477398, 0.25916019082069397, -0.3499906659126282, -0.3427942991256714, -0.10659267753362656, -0.09224103391170502, 0.10588255524635315, 0.23602914810180664, -0.423211932182312, -0.11868790537118912, -0.04403303191065788, 0.15711025893688202, 0.15835247933864594, -0.02860126830637455, 0.18881215155124664, 0.025795090943574905, -0.21050305664539337, 0.11824779212474823, -0.294288694858551, 0.1631547063589096, 0.14155761897563934, 0.177504763007164, -0.060523830354213715, -0.11933216452598572, -0.20419266819953918, 0.11771892756223679, 0.10979408770799637, 0.110018789768219, 0.11823476850986481, 0.040248189121484756, -0.028593726456165314, -0.037888433784246445, -0.04324692115187645, -0.1880142241716385, 0.3617474436759949, 0.16507060825824738, -0.08264220505952835, 0.2085580676794052, 0.04242954030632973, 0.11392100155353546, -0.15538379549980164, -0.3606969118118286, 0.06513240933418274, 0.1464802622795105, 0.1471886932849884, -0.2860579192638397, -0.30954593420028687, 0.17252446711063385, 0.18826182186603546, 0.07414024323225021, -0.9881531596183777, 0.4025500416755676, 0.20492106676101685, 0.17692966759204865, -0.12510541081428528, -0.3269348740577698, 0.1566522866487503, -0.03572137653827667, -0.041822049766778946, -0.25830933451652527, -0.06334766000509262, 0.1446344256401062, 0.1474655121564865, 0.03910772129893303, 0.2126777321100235, -0.13484609127044678, 0.27486586570739746, 0.06075330823659897, -0.33878079056739807, 0.3655451238155365, -0.14255724847316742, 0.05660943314433098, -0.2691376507282257, -0.1233353540301323, 0.11969079077243805, 0.028151564300060272, 0.20148181915283203, 0.025820530951023102, 0.21531817317008972, -0.09096088260412216, -0.19676895439624786, -0.06893790513277054, -0.15017448365688324, 0.12901097536087036, 0.13979126513004303, 0.3079233169555664, 0.021030422300100327, 0.046394627541303635, -0.228310227394104, 0.16727666556835175, 0.4282478094100952, 0.2473042607307434, 0.11065039783716202, 0.10510213673114777, 0.35468724370002747, -0.04818012937903404, 0.15116512775421143, 0.2131187617778778, -0.13127046823501587, -0.2042924463748932, -0.14884045720100403, -0.12194103747606277, -0.09075544774532318, 0.5005239844322205, -0.6579837203025818, -0.16342569887638092, 0.0650206208229065, 0.055956657975912094, -0.023056427016854286, 0.021631328389048576, -0.18647629022598267, 0.10344740748405457, -0.044004566967487335, -0.1855747103691101, 0.33466795086860657, -0.011169642210006714, 0.26378288865089417, -0.47328999638557434, 0.2523375153541565, 0.11620078235864639, 0.07288432121276855, -0.23213982582092285, 0.002791925799101591, 0.1760873645544052, -0.0567142516374588, 0.0484958179295063, -0.24741852283477783, 0.13387225568294525, 0.1462639421224594, -0.04218263924121857, 0.17402620613574982, 0.08086998015642166, -0.08309172093868256, -0.07021781802177429, 0.10228225588798523, 0.08848567306995392, -0.06437769532203674, -0.31350135803222656, -0.3503236472606659, -0.08757907897233963, 0.15258632600307465, 0.04436270147562027, -0.44384831190109253, 0.04491893947124481, 0.206898495554924, 0.07887304574251175, 0.3539258539676666, 0.6375201940536499, 0.15288421511650085, -0.03129519149661064, 0.30910736322402954, -0.45277300477027893, -0.0963808000087738, -0.4534183740615845, -0.04388656094670296, -0.03454136848449707, -0.12757574021816254, 0.018762260675430298, -0.05593876168131828, -0.16450810432434082, -0.0610114187002182, -0.11882778257131577, -0.024909256026148796, 0.06040400266647339, -0.20458553731441498, 0.18436430394649506, 0.07595141232013702, 0.13639980554580688, -0.2711782455444336, -0.0179526899009943, -0.07997027039527893, 0.06838065385818481, -0.10215991735458374, 0.07725362479686737, -0.20050092041492462, 0.11024567484855652, -0.10001754760742188, 0.10263987630605698, 0.28228792548179626, 0.2784654498100281, 0.1642610877752304, -0.4574803113937378, 0.12548035383224487, -0.02497251145541668, -0.19898222386837006, -0.41165199875831604, -0.08170563727617264, -0.44918015599250793, -0.502509355545044, -0.24285875260829926, -0.12455420196056366, 0.24550653994083405, -0.17094679176807404, 0.17214252054691315, -0.19010373950004578, -0.3031389117240906, -0.3051242232322693, -0.3614864647388458, -0.1299719363451004, 0.4219474494457245, -0.45789167284965515, 0.18084320425987244, -0.053312402218580246, -0.0685027465224266, 0.06213952600955963, 0.30335021018981934, -0.03808443248271942, 0.0075203790329396725, -0.10475313663482666, 0.19234128296375275, 0.0685121938586235, 0.15348860621452332, 0.2869216501712799, -0.42574211955070496, 0.010334809310734272, 0.06260617822408676, 0.24072636663913727, 0.005948507227003574, 0.10189259052276611, 0.09352578967809677, 0.18450826406478882, 0.11646921187639236, 0.1745525449514389, 0.10407830029726028, -0.1873919665813446, 0.17835277318954468, -0.000161754825967364, 0.09584888815879822, 0.2669137716293335, -0.047162365168333054, 0.003085385775193572, 0.06325602531433105, 0.06118021532893181, -0.2989753484725952, -0.3063882887363434, 0.0385899655520916, -0.17548063397407532, 0.4419102966785431, -0.6016420722007751, 0.25260457396507263, -0.03245877847075462, 0.06484530121088028, 0.21397747099399567, 0.5967780351638794, 0.11172863095998764, -0.1907266527414322, 0.24773985147476196, -0.2071610987186432, 0.166132390499115, -0.1687919646501541, -0.001484064501710236, 0.12443681806325912, 0.06913424283266068, -0.2859322726726532, -0.1520395427942276, 0.0286500733345747, -0.004458746872842312, -0.16116957366466522, -0.29321935772895813, 0.1331404745578766, 0.27029329538345337, 0.10457445681095123, -0.04963374137878418, -0.025562411174178123, -0.16691911220550537, -0.08356481045484543, 0.1446000188589096, 0.19776146113872528, -0.03744601085782051, 0.18316417932510376, 0.0627269595861435, -0.03522782772779465, -0.08198068290948868, 0.06658957153558731, -0.035664379596710205, 0.013447369448840618, 0.17331548035144806, -0.1270367056131363, 0.14588502049446106, 0.02696232870221138, 0.042019981890916824, 0.21924003958702087, 0.5807754993438721, -0.12557198107242584, -0.06062780320644379, 0.1643446385860443, -0.5873181223869324, 0.16693507134914398, -0.3417437970638275, 0.23406729102134705, -0.14811809360980988, -0.029857005923986435, -0.22105950117111206, -0.22389589250087738, -0.23968946933746338, 0.49674901366233826, -0.5652950406074524, 0.1337537169456482, -0.16288204491138458, -0.039716146886348724, -0.1731809824705124, 0.012310135178267956, 0.3202008008956909, -0.11775313317775726, -0.04957529529929161, -0.015720263123512268, -0.21074195206165314, -0.2148815244436264, 0.1949710249900818, -0.30196449160575867, 0.12230349332094193, -0.1665768176317215, 0.03667569160461426, 0.0057259188033640385, -0.0357293002307415, 0.1739327758550644, 0.18819132447242737, -0.06840681284666061, 0.2780207395553589, -0.05220126733183861, -0.21981798112392426, -0.2116425335407257, -0.3110257685184479, -0.02131885103881359, 0.03700815141201019, 0.04742418974637985, 0.05618710070848465, 0.02476668171584606, 0.07180001586675644, -0.44800353050231934, 0.18658743798732758, 0.12941797077655792, -0.07907621562480927, 0.20261159539222717, -0.3444407880306244, 0.31856685876846313, 0.10973498970270157, -0.08426805585622787, 0.35163891315460205, 0.06928151845932007, 0.020596280694007874, -0.4832824468612671, 0.10769621282815933, 0.20548535883426666, 0.3677288293838501, 0.038877710700035095, -0.0586710050702095, 0.0008542036521248519, -0.01794537901878357, -0.22841216623783112, 0.23359183967113495, 0.06077764183282852, -0.2441805899143219, -0.17894740402698517, -0.32996490597724915, 0.1656816452741623, 0.11121241003274918, 0.19741809368133545, -0.015709759667515755, -0.19527004659175873, -0.09987886250019073, 0.15798835456371307, 0.10256730020046234, 0.19450180232524872, 0.10085736960172653, 0.0808863490819931, 0.28434476256370544, -0.19768597185611725, 0.05591711029410362, -0.0033256225287914276, -0.2714270055294037, -0.23197844624519348, 0.14950893819332123, -0.22595958411693573, 0.2299763560295105, -0.12927287817001343, 0.31966260075569153, 0.5715152025222778, 0.5188272595405579, -0.0562300980091095, -0.1881628781557083, 0.06346289068460464, 0.3642737567424774, -0.19927534461021423, -0.3376937210559845, 0.10336451977491379, -0.10773265361785889, -0.2192288488149643, -0.27029135823249817, -0.05829421803355217, -0.0306272991001606, 0.15688978135585785, -0.49501487612724304, 0.11113063991069794, -0.05553658306598663, -0.13451671600341797, -0.0725059062242508, -0.34908008575439453, -0.09435982257127762, -0.15181276202201843, 0.2044862061738968, -0.07924973219633102, -0.04542392119765282, -0.3186602294445038, -0.10534882545471191, 0.11169499158859253, -0.17045436799526215, -0.14087893068790436, -0.15177297592163086, -0.2269643098115921, -0.03482089936733246, -0.20399712026119232, -0.14747299253940582, 0.039144206792116165, -0.02064274623990059, -0.03632045537233353, -0.13923649489879608, -0.08771151304244995, 0.13590572774410248, 0.02614673785865307, 0.04516082629561424, -0.3547222316265106, 0.031313229352235794, 0.14256112277507782, 0.023133140057325363, 0.13532593846321106, -0.36191052198410034, -0.18083961308002472, -0.35098034143447876, -0.35624125599861145, -0.2045070081949234, 0.08899165689945221, 0.6322845816612244, -0.3363715708255768, 0.2074369192123413, 0.14715950191020966, -0.5672205686569214, 0.49738574028015137, -0.0162900872528553, -0.05005815997719765, -0.0019855848513543606, -0.28660306334495544, 0.02129659242928028, -0.04488838464021683, -0.08574105054140091, -0.13082937896251678, -0.29950931668281555, -0.03678377345204353, -0.008948043920099735, 0.05115899071097374, 0.255537748336792, 0.18609242141246796, 0.18555812537670135, -0.4456569254398346, 0.06713253259658813, 0.19825582206249237, 0.2150270640850067, 0.06397275626659393, 0.08834880590438843, -0.1259785145521164, -0.03298792988061905, -0.3981095850467682, -0.14294898509979248, -0.09608403593301773, 0.18764232099056244, 0.0646185353398323, 0.20674432814121246, -0.2863062918186188, 0.13272878527641296, 0.1787564605474472, -0.3181873559951782, -0.2827499806880951, 0.12234131991863251, -0.802379310131073, 0.17185908555984497, -0.3701117932796478, -0.18905110657215118, -0.5618135929107666, -0.32606855034828186, 0.09362564235925674, -0.2878989279270172, -0.09717327356338501, -0.1710810363292694, -0.5030269026756287, 0.04465719684958458, -0.26077523827552795, -0.354085773229599, 0.2145787626504898, 0.0013404213823378086, 0.049832168966531754, 0.0009952164255082607, -0.2229226976633072, 0.007875151000916958, 0.0374336838722229, 0.18630261719226837, -0.14663174748420715, 0.2456769347190857, 0.09551139920949936, 0.17295511066913605, 0.08549890667200089, -0.431701123714447, 0.15506131947040558, -0.3485911190509796, -0.07311102747917175, 0.08383418619632721, 0.009465432725846767, 0.0799848809838295, 0.07517882436513901, 0.023170074447989464, 0.0796075314283371, 0.1716337502002716, 0.034514252096414566, 0.1641605943441391, -0.10576936602592468, 0.10526127368211746, 0.07762259989976883, 0.07733238488435745, -0.40418264269828796, 0.11118389666080475, -0.13100972771644592, 0.2928158640861511, -0.08997862040996552, -0.25977444648742676, -0.1340545266866684, -0.22268521785736084, 0.08918490260839462, -0.5583998560905457, 0.0648144856095314, 0.10928574204444885, -0.0266239196062088, 0.3985043466091156, 0.7451485395431519, -0.7247391939163208, 0.18225796520709991, -0.41954147815704346, 0.1666906476020813, -0.07806593179702759, -0.07095808535814285, 0.01100210752338171, -0.13555826246738434, 0.12729759514331818, -0.02110598050057888, -0.11533308029174805, 0.14802579581737518, -0.057129424065351486, 0.013024055399000645, 0.1072394922375679, -0.10642662644386292, 0.19838102161884308, -0.4214767515659332, 0.1549200415611267, -0.2997088134288788, 0.045172736048698425, 0.14189498126506805, 0.031129049137234688, -0.10761033743619919, -0.04112624377012253, 0.009654685854911804, -0.014126034453511238, 0.06126417592167854, 0.04798421636223793, -0.01899406686425209, 0.1445489525794983, 0.12471972405910492, -0.27819347381591797, -0.08145471662282944, -0.318291574716568, 0.03695695474743843, 0.2287488579750061, 0.5009481310844421, 0.3434390127658844, -0.6062155961990356, 0.2843160331249237, -0.19067731499671936, 0.011052454821765423, -0.03347783163189888, -0.34112784266471863, -0.17785295844078064, -0.04142969846725464, 0.02919185906648636, -0.1816863864660263, -0.6839197278022766, -0.3435816466808319, -0.11585498601198196, -0.20726121962070465, 0.18492521345615387, -0.16199317574501038, 0.08297360688447952, -0.20789475739002228, -0.050245653837919235, 0.009866918437182903, -0.22431282699108124, -0.04712575301527977, -0.12070594727993011, 0.12354366481304169, 0.14250829815864563, -0.5193347930908203, -0.02050979807972908, -0.10787875950336456, -0.19852735102176666, 0.11920984834432602, -0.12992051243782043, -0.09239887446165085, 0.1262105256319046, -0.13316459953784943, -0.10613180696964264, 0.12081509083509445, 0.09143994003534317, 0.25424692034721375, 0.10899844020605087, 0.14430372416973114, -0.040647849440574646, -0.1498989760875702, -0.3333194851875305, 0.23885974287986755, 0.15912729501724243, 0.027934212237596512, -0.15754921734333038, 0.23829549551010132, -0.014972139149904251, -0.26727673411369324, 0.4155223071575165, -0.025718173012137413, 0.20762906968593597, -0.27741527557373047, 0.23545175790786743, 0.40619024634361267, 0.6951321363449097, -0.12110073119401932, 0.0658416748046875, 0.026473689824342728, 0.5646273493766785, 0.045350927859544754, 0.01123475469648838, -0.011759909801185131, -0.07387391477823257, 0.0122293122112751, -0.0269332118332386, 0.12525567412376404, 0.003172782016918063, 0.33846595883369446, 0.01886502094566822, -0.04369571805000305, -0.2494385987520218, 0.15381737053394318, -0.24788235127925873, 0.006051951088011265, 0.07077401876449585, 0.335736483335495, 0.04004407674074173, -0.002469324041157961, 0.15475770831108093, -0.28307005763053894, 0.09344605356454849, 0.22140640020370483, -0.06339635699987411, 0.1724274754524231, 0.10498608648777008, 0.1707133799791336, -0.06428653746843338, -0.43608295917510986, 0.15722273290157318, 0.09408262372016907, 0.07983684539794922, -0.010941321030259132, 0.28082525730133057, 0.20472821593284607, -0.14590425789356232, -0.2445744127035141, -0.1413547843694687, 0.5299352407455444, -0.44532251358032227, 0.09381674975156784, -0.09831782430410385, -0.2322159707546234, 0.0375908762216568, -0.3668390214443207, -0.6703800559043884, -0.32475948333740234, -0.3819003105163574, -0.04240631312131882]
[-0.07829644531011581, -0.1086864247918129, -0.2544943690299988, -0.08874103426933289, -0.20377008616924286, -0.06538485735654831, -0.03524592146277428, -0.013840245082974434, -0.19296962022781372, 0.00667587062343955, -0.018418550491333008, -0.033595383167266846, 0.03752484172582626, 0.0038953633047640324, -0.08089612424373627, 0.03278614208102226]
[0.12789638340473175, -0.2607000470161438, 0.05385735630989075, 0.10985428094863892, -0.054185252636671066, -0.0047120763920247555, 0.0370938815176487, -0.18382084369659424, 0.07111450284719467, 0.06270042806863785, -0.17690430581569672, -0.06752438098192215, -0.013619586825370789, -0.011938054114580154, -0.1415308713912964, -0.01157838199287653, -0.028651628643274307, -0.12464690953493118, 0.18794158101081848, -0.024732358753681183, 0.06613407284021378, -0.05910424515604973, 0.02291376143693924, 0.05941510200500488, -0.08952118456363678, 0.032597385346889496, 0.04162641614675522, 0.05517726019024849, 0.061835240572690964, -0.0876004621386528, -0.13373292982578278, 0.005774390883743763, -0.05928761139512062, 0.018637606874108315, 0.0034529883414506912, 0.02254386804997921, 0.06135540083050728, -0.0896502137184143, 0.10761085152626038, -0.011271343566477299, -0.0648069903254509, -0.06718204915523529, -0.01660921797156334, -0.04130672663450241, -0.02884327620267868, 0.012365001253783703, -0.006315311882644892, 0.043159034103155136, -0.11481732130050659, -0.06563004851341248, -0.04135632887482643, -0.02233620546758175, -0.04361242055892944, -0.025107214227318764, -0.10036611557006836, 0.07452557235956192, 0.07039497047662735, -0.09298856556415558, -0.13299216330051422, -0.06335391849279404, 0.033002112060785294, 0.14004182815551758, 0.0723736435174942, -0.1846359819173813, 0.09873633086681366, 0.08308786153793335, -0.04630070552229881, -0.0899326279759407, -0.01790909469127655, -0.0818796381354332, -0.059220168739557266, 0.004487641155719757, 0.032125744968652725, -0.008038194850087166, 0.0682598203420639, 0.03692910447716713, -0.04034077003598213, -0.031766463071107864, -0.18668152391910553, -0.0644799992442131, -0.10722653567790985, 0.0582563690841198, -0.07096453011035919, -0.06905443221330643, 0.06340516358613968, -0.013426515273749828, -0.08312211185693741, 0.09981592744588852, 0.001123572699725628, -0.000971678295172751, 0.10851330310106277, -0.13879269361495972, -0.09198606014251709, 0.030532551929354668, 0.006469304673373699, 0.06715181469917297, -0.07229980081319809, -0.056324224919080734, 0.08439069241285324, 0.04314841330051422, 0.09220288693904877, -0.1905437558889389, -0.048500560224056244, -0.1374722123146057, -0.2151796966791153, -0.02261495590209961, 0.1354498416185379, -0.1402702033519745, -0.07950150221586227, 0.07262822985649109, 0.1436559557914734, -0.06484222412109375, -0.1006973534822464, 0.07502682507038116, -0.05911484360694885, 0.20094865560531616, -0.08051210641860962, 0.04152565449476242, -0.07267572730779648, 0.008758917450904846, -0.10710754245519638, 0.01201004721224308, 0.036156993359327316, 0.027899447828531265, 0.26566824316978455, -0.024914825335144997, 0.08924887329339981, -0.1901266723871231, 0.17694255709648132, 0.20281855762004852, -0.09591373056173325, -0.08623617887496948, 0.25476720929145813, -0.08974727988243103, -0.01134410034865141, -0.07465820014476776, -0.15595097839832306, -0.16908109188079834, 0.04150569438934326, 0.0741327553987503, -0.03878719359636307, -0.0366610549390316, 0.11515136063098907, 0.14526692032814026, 0.08281853049993515, -0.014426134526729584, 0.04505284130573273, 0.034161973744630814, 0.09435589611530304, 0.08861974626779556, -0.10515773296356201, -0.06274300068616867, 0.048720166087150574, -0.02060113660991192, 0.05347886309027672, 0.03551638498902321, -0.14556649327278137, -0.051440756767988205, 0.10650797188282013, -0.1176593229174614, 0.03100776858627796, -0.0414455346763134, 0.11469950526952744, -0.10540984570980072, 0.10151610523462296, 0.11489493399858475, -0.0485074482858181, 0.20179809629917145, -0.1058199405670166, -0.041345588862895966, -0.22056476771831512, 0.045554883778095245, 0.11008131504058838, 0.013635333627462387, -0.028901414945721626, -0.08605826646089554, 0.21938759088516235, -0.0795777216553688, -0.05668843537569046, 0.12266237288713455, 0.08810006827116013, 0.10238420218229294, 0.07334484905004501, 0.0770578384399414, -0.031619034707546234, -0.08460164815187454, 0.0027868507895618677, -0.13348326086997986, -0.0800822302699089, 0.06607390940189362, 0.09732943028211594, 0.04904893413186073, 0.19730821251869202, 0.21184584498405457, 0.19327475130558014, 0.05212561786174774, -0.06731219589710236, 0.02088433876633644, -0.2519795894622803, 0.03536546602845192, -0.008130333386361599, -0.025557085871696472, -0.16213379800319672, -0.027458056807518005, 0.00758902495726943, -0.1453608274459839, -0.020457617938518524, 0.031113725155591965, -0.044816505163908005, -0.09542542695999146, -0.23521262407302856, -0.12136797606945038, -0.13679265975952148, -0.18038105964660645, 0.08975652605295181, -0.0077131655998528, 0.018280532211065292, 0.2629373371601105, -0.12731404602527618, -0.10991054773330688, -0.04440172389149666, 0.08896836638450623, -0.16825243830680847, 0.23065491020679474, -0.13245786726474762, 0.018825626000761986, -0.05245070159435272, 0.08288807421922684, -0.10792113840579987, -0.01948610320687294, 0.01746387407183647, -0.05998668819665909, -0.14059622585773468, 0.013625647872686386, 0.17021366953849792, 0.22517278790473938, 0.021063340827822685, 0.06420979648828506, 0.13704343140125275, 0.054170139133930206, -0.019082805141806602, -0.22628405690193176, 0.06166587397456169, 0.054508280009031296, -0.0753568485379219, -0.09567955136299133, 0.06234854459762573, -0.11507628113031387, 0.09195660799741745, 0.04808816686272621, 0.008324832655489445, -0.08036310970783234, 0.17515477538108826, -0.07621511816978455, -0.08995448797941208, -0.06974237412214279, 0.1308150738477707, -0.03753754124045372, 0.02231304720044136, -0.08594692498445511, -0.025921793654561043, -0.14347387850284576, 0.003186123911291361, -0.0939619168639183, -0.03675147145986557, -0.08423405140638351, -0.029153181239962578, 0.07024721056222916, 0.01513117179274559, -0.10001138597726822, -0.04692665487527847, -0.0054861935786902905, 0.037289250642061234, 0.01986631378531456, -0.010890820994973183, -0.022307876497507095, -0.08404232561588287, -0.050147123634815216, 0.08422756940126419, -0.013051752001047134, -0.054021310061216354, 0.10664504021406174, -0.13615795969963074, -0.037588268518447876, -0.0658089742064476, 0.1556517481803894, -0.013481095433235168, -0.12810121476650238, -0.058867085725069046, -0.0032295342534780502, -2.605106601549778e-05, -0.21583297848701477, 0.04755645617842674, 0.028453607112169266, -0.06588304787874222, 0.01918756030499935, 0.18123435974121094, -0.07258010655641556, -0.2337350994348526, -0.06943415850400925, 0.005376891698688269, 0.1556026190519333, -0.04609532281756401, -0.08148518204689026, 0.028685778379440308, 0.10753093659877777, -0.11188270151615143, -0.12342624366283417, -0.0027679712511599064, -0.13162162899971008, 0.1161431297659874, -0.013912845402956009, 0.08944164961576462, -0.009855911135673523, 0.18121330440044403, 0.09567496180534363, -0.0754864439368248, 0.0015963774640113115, -0.17379578948020935, 0.043662648648023605, -0.0888323187828064, 0.0633179098367691, 0.07000141590833664, -0.07043693959712982, 0.018830735236406326, 0.0034721295814961195, -0.09976359456777573, 0.0026367991231381893, -0.01580122485756874, 0.14194230735301971, 0.024940554052591324, -0.035527125000953674, -0.11817494034767151, -0.0600719153881073, 0.008891528472304344, 0.0044269198551774025, -0.05308352783322334, -0.08535181730985641, -0.0291806198656559, -0.11330468207597733, 0.06920217722654343, -0.03199818357825279, 0.050426214933395386, 0.05288216099143028, -0.11944679915904999, 0.11067195981740952, -0.011439184658229351, -0.02996981516480446, -0.0977788195014, 0.1274014413356781, -0.02068961411714554, 0.19696393609046936, 0.04839510843157768, 0.09178690612316132, 0.023313092067837715, -0.03487765043973923, 0.08931218832731247, -0.08477235585451126, -0.08430016785860062, 0.10714098066091537, -0.20474261045455933, 0.020524492487311363, 0.018885910511016846, -0.15640416741371155, 0.1777552217245102, 0.016533318907022476, -0.002664141124114394, -0.07936685532331467, -0.1576785296201706, -0.13842743635177612, 0.12518098950386047, 0.24125419557094574, 0.02933610789477825, -0.015454740263521671, -0.16705642640590668, -0.010387497954070568, -0.2436257004737854, 0.05847491696476936, 0.17605836689472198, 0.06614594906568527, -0.1211993545293808, -0.02427038550376892, -0.07279866933822632, 0.1468830704689026, 0.110285185277462, -0.1230723038315773, -0.037137698382139206, 0.19831901788711548, -0.07363273203372955, -0.06080661341547966, 0.011577012948691845, 0.1434316635131836, 0.026144348084926605, 0.048866793513298035, -0.16801752150058746, -0.16412672400474548, -0.07038050889968872, -0.03837577998638153, 0.16189612448215485, -0.19913724064826965, 0.08345445245504379, -0.09865214675664902, 0.22172345221042633, 0.13358339667320251, -0.10640935599803925, 0.01294662430882454, -0.04401741549372673, 0.1087297797203064, 0.10048816353082657, -0.0740744024515152, 0.147613987326622, 0.10636276751756668, -0.08659828454256058, -0.08744220435619354, 0.09647749364376068, -0.16174766421318054, 0.1777808964252472, -0.0022241699043661356, 0.12900115549564362, 0.1783113181591034, 0.05943822115659714, 0.05564730241894722, 0.05758097767829895, 0.02803659252822399, -0.07753876596689224, 0.050856634974479675, 0.09166693687438965, 0.2192174196243286, -0.09973503649234772, -0.035519134253263474, -0.11819035559892654, 0.20184575021266937, 0.08151721954345703, 0.04686547815799713, -0.0178336463868618, 0.17617817223072052, 0.16585126519203186, 0.061858683824539185, 0.02376881055533886, 0.07155431061983109, -0.0863761454820633, 0.06963280588388443, -0.027581818401813507, 0.004882290493696928, -0.10209033638238907, 0.08663774281740189, 0.16312317550182343, -0.054304786026477814, -0.07444662600755692, 0.010663791559636593, 0.006893839221447706, 0.05950090289115906, 0.10211271792650223, 0.048251837491989136, -0.05689091980457306, 0.14582012593746185, -0.04274176061153412, 0.05115051195025444, -0.13346679508686066, -0.07171480357646942, -0.08103625476360321, 0.044167760759592056, -0.04486249014735222, 0.21692734956741333, -0.12896107137203217, -0.14479835331439972, 0.019635288044810295, 0.026651881635189056, 0.11631420254707336, 0.053781505674123764, 0.01925058476626873, -0.04614634811878204, -0.024637503549456596, 0.014416221529245377, 0.20509089529514313, 0.030440086498856544, 0.03336648270487785, -0.02506762556731701, 0.15423430502414703, 0.17945101857185364, -0.07004740834236145, -0.2492445856332779, -0.08042842149734497, 0.06925205886363983, -0.07203985750675201, -0.03950777277350426, -0.08441062271595001, -0.28106042742729187, -0.0014147358015179634, 0.009290547110140324, -0.050173092633485794, 0.04222272336483002, -0.02559017948806286, -0.05671442672610283, -0.23096370697021484, 0.033135782927274704, -8.954006261774339e-06, -0.17275278270244598, 0.08007299154996872, 0.03162461146712303, -0.020490439608693123, -0.06347312033176422, 0.05353673920035362, 0.09634261578321457, 0.09540217369794846, 0.08035989850759506, 0.04119327664375305, 0.0650249719619751, -0.022924024611711502, -0.07728715240955353, -0.24473904073238373, 0.04026481881737709, -0.05023829638957977, 0.010247517377138138, 0.10254734009504318, -0.07390644401311874, -0.15550076961517334, 0.05742167681455612, 0.11950349062681198, 0.01801559329032898, 0.06546658277511597, 0.11251243948936462, -0.11880326271057129, -0.11822666227817535, -0.11511769145727158, 0.1090986356139183, -0.015415381640195847, -0.1939985156059265, 0.030134467408061028, 0.028652334585785866, 0.017992008477449417, -0.15018382668495178, -0.13355305790901184, -0.08027254045009613, 0.09981425851583481, -0.10485782474279404, 0.051391731947660446, -0.1122516393661499, -0.14871355891227722, -0.11250387132167816, 0.033233173191547394, 0.16917192935943604, -0.11607366800308228, -0.06270104646682739, 0.0008781558717601001, -0.005835832562297583, -0.054395150393247604, 0.009224303998053074, 0.009114408865571022, -0.10031592100858688, 0.09773224592208862, -0.04639604687690735, 0.07043979316949844, -0.18562734127044678, 0.16196966171264648, 0.061821021139621735, -0.09180355817079544, -0.1376083493232727, -0.12657228112220764, -0.06361603736877441, -0.11066749691963196, -0.10602595657110214, 0.06792265921831131, -0.19977888464927673, -0.1013047993183136, 0.10008106380701065, -0.127839595079422, -0.030670827254652977, 0.07486335933208466, 0.09375178068876266, 0.14319199323654175, -0.16200567781925201, 0.002043504500761628, 0.03108072280883789, -0.08768768608570099, 0.013824495486915112, -0.1769491583108902, -0.17510969936847687, 0.006488130893558264, -0.024854762479662895, 0.15189442038536072, -0.13797610998153687, 0.1312733143568039, 0.07599856704473495, -0.21688930690288544, 0.02716330625116825, 0.08085211366415024, -0.1323443055152893, 0.07752753049135208, -0.06148686632514, 0.19227027893066406, 0.095359668135643, 0.05073663964867592, 0.04274802654981613, 0.05825536325573921, 0.10602392256259918, 0.05175410583615303, -0.05829939246177673, -0.10239802300930023, 0.056879788637161255, 0.12395858019590378, -0.22960013151168823, 0.09402430057525635, 0.1986950933933258, 0.034180112183094025, 0.025028984993696213, -0.0007820826140232384, -0.20230723917484283, 0.027940567582845688, 0.1527273952960968, -0.10057397931814194, 0.03403864800930023, 0.1579759418964386, 0.039424795657396317, 0.05052052438259125, 0.03587578609585762, 0.0448332205414772, 0.0053185513243079185, 0.12475865334272385, 0.004381299018859863, 0.0738191157579422, 0.002822891343384981, 0.04774632677435875, -0.08790978789329529, -0.029462303966283798, -0.003469017567113042, -0.09910166263580322, 0.032268963754177094, 0.15637968480587006, -0.06315483897924423, -0.07066059857606888, 0.05695297569036484, 0.026427611708641052, 0.02358100935816765, -0.08422601222991943, 0.054127782583236694, -0.09434370696544647, -0.020497865974903107, 0.1433342546224594, -0.1306326985359192, 0.056895993649959564, -0.06376234441995621, -0.1487087607383728, -0.15656091272830963, -0.07589634507894516, 0.1279190331697464, 0.0010645042639225721, 0.08637088537216187, -0.059831198304891586, 0.07680238038301468, -0.07926344126462936, -0.18361718952655792, 0.11113036423921585, 0.02916114218533039, -0.14047834277153015, -0.05062626302242279, 0.1011107936501503, -0.02924307994544506, -0.03381047770380974, 0.029889462515711784, -0.026220688596367836, -0.010441458784043789, 0.043636471033096313, -0.08886440098285675, 0.07689118385314941, -0.05195169523358345, -0.1883811354637146, 0.03874873369932175, 0.008845549076795578, -0.23278477787971497, 0.19364692270755768, 0.11856742948293686, 0.06623928248882294, -0.15389174222946167, 0.17897304892539978, 0.0018141252221539617, -0.13353846967220306, -0.044930145144462585, -0.06718932092189789, 0.038406841456890106, -0.09150556474924088, 0.08549405634403229, -0.06556364893913269, -0.030224675312638283, -0.0021074924152344465, -0.06387797743082047, 0.04374530538916588, -0.021039191633462906, -0.0956873744726181, 0.10647959262132645, -0.0004339232691563666, -0.019404977560043335, -0.09145522117614746, 0.0801493227481842, -0.02755398117005825, -0.07775881141424179, 0.001406832947395742, -0.0802941620349884, -0.0671708732843399, -0.020255401730537415, -0.062233325093984604, -0.12119925767183304, 0.03669831156730652, -0.09092690795660019, -0.2585839033126831, -0.03233931586146355, 0.16038380563259125, -0.06106438487768173, -0.08440857380628586, 0.10273753106594086, 0.04967330023646355, -0.11660028249025345, 0.059455208480358124, 0.026308255270123482, -0.02216239646077156, 0.09614687412977219, 0.0793636292219162, -0.013823587447404861, -0.0039634485729038715, 0.08759000152349472, -0.001897757756523788, 0.1435452550649643, 0.013429949060082436, -0.06368526816368103, 0.13262134790420532, -0.124725341796875, 0.0096629299223423, 0.008512832224369049, 0.18805406987667084, 0.12527526915073395, 0.019120696932077408, 0.0903264582157135, 0.05879843980073929, 0.08202861994504929, -0.04465106129646301, 0.02775895968079567, -0.0727219358086586, -0.021212631836533546, -0.03478993847966194, -0.061258938163518906, -0.11567606776952744, -0.20266024768352509, 0.1334957331418991, -0.08263934403657913, 0.004844240844249725, 0.06459509581327438, -0.015209229663014412, -0.07758115977048874, 0.12366407364606857, -0.01936035230755806, -0.239121675491333, 0.035530053079128265, -0.00566180981695652, 0.12655609846115112, 0.07691120356321335, -0.10065913200378418, 0.07651127874851227, -0.07871711254119873, 0.08300793170928955, 0.092336505651474, -0.10660745948553085, -0.12342116236686707, 0.09135112911462784, -0.0653848722577095, 6.707337161060423e-05, 0.17376720905303955, 0.17593611776828766, 0.06831756979227066, -0.0657833069562912, -0.04952685534954071, 0.0717788115143776, -0.14369359612464905, -0.015745926648378372, -0.14382082223892212, 0.12837374210357666, -0.19903576374053955, 0.15531572699546814, 0.08024083077907562, -0.005304588004946709, 0.06134390830993652, -0.06523993611335754, 0.2322007417678833, 0.1524796336889267, -0.06436346471309662, 0.022953391075134277, -0.017406020313501358, 0.053709447383880615, -0.14791162312030792, -0.026195749640464783, 0.12226121127605438, 0.016666926443576813, 0.08424399048089981, -0.09743921458721161, 0.060869861394166946, -0.07920441776514053, -0.011853094212710857, -0.1293601542711258, 0.08604364097118378, -0.12695248425006866, -0.05353816598653793, 0.051022324711084366, 0.017244823276996613, 0.027657128870487213, 0.206203892827034, -0.04260236397385597, 0.040868498384952545, -0.05736346170306206, 0.05698418989777565, -0.04104632884263992, -0.1361880749464035, -0.014256671071052551, -0.13326717913150787, 0.017609475180506706, 0.09922654926776886, -0.037841182202100754, -0.04944510757923126, 0.15544623136520386, 0.06804440170526505, -0.08220343291759491, 0.001202197396196425, -0.027419058606028557, 0.06358342617750168, -0.09076537191867828, 0.04582509398460388, 0.11269920319318771, 0.06182932108640671, -0.01625852659344673, 0.015746764838695526, -0.23464278876781464, 0.05323980003595352, -0.008391891606152058, -0.04329515993595123, -0.10672683268785477, -0.07842939347028732, 0.06689488142728806, 0.15799733996391296, -0.042332958430051804, 0.08274480700492859, 0.021643998101353645, -0.05781075358390808, 0.07478750497102737, -0.15322436392307281, 0.048648107796907425, 0.10629716515541077, 0.02549707517027855, 0.013769011944532394, -0.12363030016422272, -0.13647910952568054, 0.06801901757717133, 0.07300201058387756, 0.02395458146929741, -0.027126237750053406, -0.007329878862947226, -0.06896182149648666, -0.12001015245914459, 0.09686049073934555, -0.0026254684198647738, -0.05880839005112648, 0.14894802868366241, -0.11863109469413757, 0.1182238757610321, -0.055855948477983475, 0.08680059760808945, -0.03466354310512543, 0.04514425992965698, -0.1191493421792984, -0.05404378101229668, 0.06411976367235184, -0.026550738140940666, -0.09464406967163086, 0.03323943540453911, 0.04831138998270035, 0.08648324757814407, -0.002995333168655634, -0.09439720958471298, -0.10319852828979492, -0.14282040297985077, -0.05880970507860184, 0.10215204954147339, -0.13426929712295532, -0.06588747352361679, 0.057050421833992004, -0.036448195576667786, -0.04936331883072853, -0.08354714512825012, 0.19133490324020386, -0.006229611113667488, -0.09370739758014679, 0.10959341377019882, 0.03453648462891579, -0.24846085906028748, -0.055505577474832535, -0.09511352330446243, -0.16848909854888916, 0.1257999837398529, -0.12426583468914032, -0.05819832161068916, -0.12077754735946655, -0.06987754255533218, 0.023834077641367912, 0.1555934101343155, 0.019462144002318382, -0.028975514695048332, 0.0028287561144679785, 0.11435943841934204, 0.11844556778669357, 0.006032206583768129, 0.1381889134645462, -0.0756128653883934, -0.22876401245594025, -0.12038098275661469, 0.11064944416284561, -0.0028448207303881645, -0.10093147307634354, 0.1511942744255066, -0.03548663854598999, 0.059710543602705, -0.06290921568870544, -0.034805890172719955, 0.058507367968559265, -0.0619548074901104, -0.08937525749206543, 0.0367828793823719, -0.16949962079524994, -0.06404098123311996, -0.0405462309718132, 0.11582472920417786, 0.08749548345804214, 0.0393197126686573, 0.062436364591121674, -0.008755134418606758, -0.2114570438861847, -0.047270942479372025, 0.011732930317521095, 0.06081225723028183, -0.11144097149372101, -0.0840439647436142, -0.06914057582616806, 0.038371432572603226, 0.14407993853092194, -0.038820695132017136, -0.05480274185538292, -0.048812028020620346, -0.15520603954792023, -0.19398054480552673, -0.04558238014578819, 0.15102584660053253, 0.00907472986727953, 0.005833168979734182, 0.10875076055526733, -0.04488920420408249, -0.0181877501308918, -0.05694974213838577, 0.0534251444041729, 0.07392139732837677, 0.22895298898220062, 0.0800132006406784, 0.011160800233483315, -0.14537313580513, -0.022087806835770607, -0.09277758747339249, -0.14484268426895142, 0.11272891610860825, -0.020058058202266693, 0.034790657460689545, 0.08669479191303253, -0.09616491198539734, -0.16087739169597626, 0.1470857411623001, 0.024143528193235397, -0.15773695707321167, -0.028635729104280472, 0.06359778344631195, 0.008007438853383064, -0.07316537946462631, 0.01577368751168251, -0.1422654390335083, -0.053796328604221344, 0.08777721226215363, -0.02951553650200367, 0.09970086812973022, -0.017470551654696465, 0.09219727665185928, 0.08768818527460098, -0.034065280109643936, -0.10855582356452942, -0.02156377024948597, -0.011802371591329575, 0.15936128795146942, -0.09680377691984177, -0.09603015333414078, 0.09463629126548767, -0.06407030671834946, -0.05187441036105156, 0.1559167355298996, -0.1189761534333229, -0.07440993189811707, -0.10634247213602066, 0.02308596484363079, -0.1414811611175537, -0.04565288871526718, -0.031088078394532204, -0.02685503661632538, -0.13871319591999054, -0.035903844982385635, -0.056568559259176254, 0.005786317400634289, -0.2211887091398239, 0.009594189003109932, 0.06323294341564178, 0.09187079221010208, -0.0009190465207211673, -0.17702822387218475, -0.07854150980710983, 0.11021232604980469, 0.05443577468395233, -0.008372810669243336, -0.08002540469169617, -0.02732551097869873, -0.13019680976867676, -0.06933599710464478, 0.17956134676933289, 0.003998503088951111, -0.06331907957792282, 0.009012688882648945, -0.0807025209069252, 0.03358681872487068, -0.07919342070817947, -0.09236938506364822, -0.12976449728012085, 0.08158154040575027, 0.08404803276062012, 0.04152846336364746, -0.06350119411945343, 0.04784487932920456, 0.0669252872467041, -0.03506273031234741, -0.1965218186378479, -0.17501504719257355, 0.01983206532895565, 0.028711043298244476, 0.09648946672677994, 0.053951822221279144, -0.15110860764980316, -0.0161576084792614, -0.011319347657263279, 0.06920647621154785, -0.038170356303453445, -0.06715559214353561, 0.12785844504833221, -0.0711163729429245, -0.1371665745973587, -0.11416497081518173, -0.17080047726631165, -0.07757080346345901, 0.10245829075574875, -0.16281241178512573, -0.049020539969205856, -0.034465715289115906, -0.06923114508390427, 0.1508876532316208, -0.06842850893735886, 0.15500062704086304, 0.07341667264699936, -0.15335923433303833, -0.041921406984329224, 0.018924372270703316, -0.09324023872613907, -0.1030266061425209, 0.05424702167510986, 0.11877024173736572, 0.1059313416481018, 0.049586810171604156, 0.09299581497907639, 0.101467564702034, 0.04460277408361435, 0.01915103942155838, 0.0669301450252533, 0.020421244204044342, 0.08551880717277527, -0.0218551866710186, -0.19874142110347748, 0.127931147813797, -0.005905690602958202, 0.007091045379638672, 0.010526685044169426, -0.08248914033174515, -0.29136958718299866, 0.21098841726779938, 0.09427347034215927, -0.14581866562366486, -0.06844674795866013, -0.01569807156920433, -0.08333311975002289, -0.1660778671503067, 0.03663739562034607, -0.14358441531658173, -0.06342200189828873, 0.12691183388233185, -0.04635702073574066, 0.0607098825275898, -0.1332627385854721, 0.0316457562148571, 0.003970128018409014, -0.1352539360523224, -0.00880329217761755, 0.05254565551877022, 0.0319158099591732, -0.0752348080277443, 0.08414493501186371, -0.1039867103099823, 0.03702642023563385, -0.11358749121427536, 0.09813359379768372, -0.046482283622026443, 0.04307585954666138, -0.03562020882964134, 0.0800214558839798, 0.19237355887889862, -0.023039769381284714, -0.08205531537532806, 0.0033084836322814226, -0.11236605793237686, -0.059609200805425644, -0.0651559829711914, 0.09886087477207184, 0.1114106997847557, -0.1546802669763565, 0.013903272338211536, -0.04425075650215149, -0.032603684812784195, -0.09965221583843231, 0.018176831305027008, -0.23311351239681244, 0.12787789106369019, -0.10735131055116653, 0.013970952481031418, -0.12156277149915695, -0.044092096388339996, 0.01940137706696987, 0.1951376497745514, -0.014686337672173977, -0.05723979324102402, -0.17857548594474792, 0.14775146543979645, 0.19931595027446747, -0.16838707029819489, 0.19425302743911743, 0.04237217456102371, -0.20952828228473663, -0.03329765424132347, 0.05854669213294983, 0.09052130579948425, -0.1200513020157814, -0.021915966644883156, 0.10706473141908646, 0.036563802510499954, -0.019587788730859756, 0.0195305198431015, 0.06188863143324852, 0.028858628123998642, -0.034710559993982315, -0.08955595642328262, 0.008841141127049923, -0.02235373482108116, 0.04076233133673668, 0.01230657659471035, -0.06891794502735138, -0.10961592942476273, 0.24891480803489685, -0.03256236016750336, -0.13397063314914703, 0.004127641208469868, 0.08626406639814377, -0.06100008636713028, 0.017726650461554527, 0.033819396048784256, -0.07767113298177719, 0.04212796688079834, 0.047065556049346924, -0.05582043528556824, -0.03714258223772049, 0.055344440042972565, -0.11376408487558365, -0.23540818691253662, -0.013319741003215313, -0.05690163001418114, -0.13318750262260437, 0.047712720930576324, 0.07572036981582642, 0.044664304703474045, 0.008310835808515549, -0.10143318772315979, 0.08698984235525131, -0.05380307510495186, 0.2690065801143646, 0.0613950677216053, -0.053411465138196945, -0.0462503582239151, -0.1539352536201477, -0.1205245777964592, -0.08144635707139969, 0.044036976993083954, -0.08332133293151855, 0.026334701105952263, 0.07888700067996979, -0.06854728609323502, -0.3463357388973236, 0.16410066187381744, 0.045968472957611084, -0.2678896188735962, -0.06880209594964981, 0.11950775980949402, 0.1092829555273056, -0.13992559909820557, -0.04005385935306549, -0.22787125408649445, -0.07996409386396408, 0.19010348618030548, 0.001092292950488627, -0.07596621662378311, -0.22496259212493896, -0.07431040704250336, -0.0683523416519165, -0.08776114135980606, -0.052135925740003586, -0.008756217546761036, 0.23928627371788025, -0.02891865372657776, -0.04171662777662277, -0.26203835010528564, 0.2603583335876465, 0.044131942093372345, -0.06612478196620941, 0.026376167312264442, -0.1415894329547882, -0.15512096881866455, -0.028424153104424477, 0.15045227110385895, -0.11575247347354889, 0.02575129084289074, -0.04724576696753502, -0.02760455571115017, -0.055658239871263504, -0.07681261003017426, 0.07451289147138596, 0.04506850987672806, -0.20887140929698944, 0.06251870095729828, -0.016510125249624252, -0.010721636936068535, -0.17583563923835754, -0.11169151216745377, -0.33109816908836365, 0.2094697803258896, -0.15952232480049133, 0.07544238865375519, -0.0008407984278164804, -0.006820510607212782, 0.09928958117961884, 0.1307533085346222, 0.11326852440834045, 0.13445882499217987, -0.18910469114780426, 0.19884563982486725, 0.10064177215099335, 0.054200511425733566, 0.067705437541008, -0.12689365446567535, -0.26392310857772827, -0.05792027339339256, 0.09476146101951599, -0.09415356814861298, -0.10162962228059769, -0.005366122350096703, 0.18676698207855225, 0.009160330519080162, -0.11052460968494415, -0.12791070342063904, 0.06899034976959229, -0.011609872803092003, -0.05309978500008583, -0.03145717829465866, 0.039151065051555634, 0.07125180214643478, 0.04048825055360794, 0.1499454379081726, -0.04536145180463791, -0.029789825901389122, 0.2272459715604782, 0.07282006740570068, -0.27649393677711487, 0.016507143154740334, 0.02563515491783619, -0.15199176967144012, 0.0039575546979904175, 0.05032744258642197, -0.06649470329284668, 0.0857551321387291, 0.0908271074295044, 0.06704344600439072, 0.014543529599905014, 0.018560506403446198, 0.10230963677167892, -0.09999413788318634, -0.04241407662630081, -0.07714021950960159, 0.00023029453586786985, 0.2865676283836365, 0.11876112222671509, 0.01563183404505253, -0.03229135647416115, -0.05166543275117874, 0.0017846986884251237, 0.18481449782848358, 0.23250094056129456, 0.010549013502895832, 0.06901001185178757, 0.07489646971225739, -0.06725413352251053, -0.23529715836048126, -0.08880787342786789, 0.01208874024450779, -0.22790172696113586, 0.05963321030139923, -0.08917614072561264, 0.06514724344015121, -0.07769446074962616, -0.1359594315290451, -0.10230089724063873, 0.12106388062238693, 0.04404713213443756, -0.11245778203010559, 0.04421847686171532, -0.04370323196053505, -0.07737945020198822, -0.3557966947555542, -0.10618915408849716, 0.25137144327163696, -0.2164994478225708, -0.16954731941223145, -0.07974102348089218, -0.06400170177221298, 0.1678297072649002, 0.18127334117889404, -0.16735674440860748, -0.04666497930884361, 0.14421209692955017, -0.09979800879955292, 0.049485404044389725, 0.07770941406488419, 0.12933598458766937, 0.13355503976345062, -0.016565022990107536, 0.12235967069864273, -0.12398979067802429, -0.1107265055179596, 0.02821309119462967, -0.06770320981740952, -0.13257290422916412, 0.06630391627550125, -0.2757074534893036, 0.3102131187915802, 0.27873337268829346, 0.07340387254953384, 0.20442847907543182, -0.09506285190582275, 0.15494303405284882, 0.20224222540855408, -0.005035780370235443, 0.0495583638548851, -0.0060269893147051334, -0.0803518295288086, -0.32593968510627747, 0.0016939854249358177, -0.20318807661533356, 0.14043167233467102, 0.010877191089093685, 0.35317885875701904, 0.23236742615699768, 0.1176527738571167, 0.1375613659620285, 0.08399872481822968, -0.025145715102553368, -0.18462394177913666, -0.06348229944705963, 0.17833895981311798, 0.3001408278942108, 0.047668080776929855, -0.003410093253478408, -0.20598916709423065, 0.20692364871501923, -0.036975886672735214, 0.25712233781814575, -0.1174059808254242, 0.318414568901062, 0.17117460072040558, -0.03839090093970299, -0.08802928030490875, -0.040101274847984314, -0.07832574099302292, -0.05976168066263199, 0.10465221852064133, 0.005511338356882334, 0.08040665835142136, 0.021868260577321053, 0.07673831284046173, -0.06133738160133362, 0.04838591814041138, 0.20332981646060944, 0.06630829721689224, -0.17195077240467072, 0.05270526930689812, 0.04004603251814842, -0.13146865367889404, 0.15985512733459473, 0.0875765010714531, -0.10345353931188583, -0.1635323315858841, -0.06748177111148834, -0.28550273180007935, -0.0750611275434494, -0.003239968093112111, 0.3082023561000824, -0.09288308024406433, -0.0054229069501161575, -0.28817540407180786, 0.0370313860476017, 0.19730480015277863, 0.12717288732528687, -0.22188922762870789, -0.17778800427913666, -0.0195638295263052, 0.07107781618833542, 0.19204603135585785, -0.012762919068336487, -0.06563176214694977, 0.06143350154161453, 0.04843054711818695, 0.04688676819205284, 0.034659940749406815, -0.009649578481912613, 0.034586261957883835, 0.15309296548366547, 0.23426876962184906, 0.047836143523454666, -0.13276676833629608, -0.062738798558712, -0.007499949540942907, 0.13215526938438416, -0.26242339611053467, -0.19020377099514008, 0.03290263190865517, -0.04507812112569809, 0.08284138143062592, -0.020384104922413826, 0.00864257849752903, 0.15293242037296295, 0.03249702602624893, -0.1587863266468048, -0.0697108656167984, -0.05014535412192345, -0.01660344935953617, 0.13347063958644867, 0.004185340367257595, -0.15990424156188965, 0.012743660248816013, -0.046120937913656235, 0.10762340575456619, 0.038710467517375946, -0.07186663150787354, 0.1359313726425171, -0.027887752279639244, 0.0684872418642044, -0.12003254890441895, 0.162647545337677, 0.02161666750907898, 0.023883963003754616, 0.05331158638000488, 0.013013298623263836, -0.0812695175409317, -0.007513157092034817, 0.10215751081705093, 0.007212539669126272, -0.06382705271244049, 0.06742224842309952, 0.10933352261781693, 0.08767510205507278, -0.024258306249976158, 0.08565738052129745, -0.0360594280064106, -0.011460077948868275, 0.01649378053843975, -0.09680020064115524, 0.0784185528755188, -0.053574081510305405, 0.09014169871807098, 0.11772370338439941, -0.004759129136800766, 0.12195383757352829, 0.09033297002315521, -0.06407736986875534, 0.18330325186252594, 0.0768895372748375, -0.01029684767127037, 0.16872058808803558, -0.02002696320414543, 0.19806233048439026, -0.12147663533687592, 0.050390131771564484, -0.14694766700267792, 0.17785526812076569, 0.027748145163059235, 0.007125719450414181, 0.16044248640537262, -0.02393169328570366, 0.09546751528978348, -0.028657754883170128, -0.07649175077676773, -0.10791333764791489, -0.07359890639781952, -0.0718999132514, -0.2222943902015686, 0.017202356830239296, -0.1183556318283081, -0.16944003105163574, 0.0023220833390951157, -0.07157361507415771, -0.02486414648592472, 0.038613010197877884, -0.1285357028245926, 0.15585577487945557, 0.025227397680282593, 0.010933642275631428, -0.06053028255701065, 0.06779586523771286, 0.010595154948532581, 0.06410007178783417, -0.08232025057077408, 0.1430908590555191, -0.1284305453300476, -0.17528803646564484, 0.05073336511850357, 0.061937715858221054, 0.017245864495635033, -0.016660740599036217, 0.0833868756890297, 0.008523759432137012, 0.10407234728336334, -0.017956068739295006, -0.0014822742668911815, -0.29141443967819214, -0.009231103584170341, -0.03343139588832855, -0.021715203300118446, 0.14250415563583374, -0.0020840379875153303, -0.1348922848701477, -0.0033244071528315544, 0.012680706568062305, 0.03515502065420151, -0.2525925040245056, -0.03989159315824509, 0.09285683184862137, -0.0015519384760409594, -0.07124848663806915, -0.002187662525102496, -0.0945093110203743, -0.05909904092550278, 0.08037589490413666, 0.020541738718748093, 0.1291135996580124, 0.12370172888040543, -0.07504578679800034, -0.057658903300762177, 0.014945238828659058, -0.048496492207050323, -0.254319965839386, 0.14944463968276978, -0.09973159432411194, 0.10034046322107315, 0.036609914153814316, -0.024301035329699516, -0.013477549888193607, -0.0354292131960392, -0.10012473911046982, -0.004183079581707716, 0.013707004487514496, 0.0705941691994667, -0.06347379088401794, -0.18287888169288635, -0.06309211999177933, -0.07890203595161438, -0.16156284511089325, -0.0678965151309967, -0.0015101595781743526, -0.17718756198883057, -0.06610798090696335, 0.07854483276605606, 0.16945520043373108, 0.07044986635446548, 0.05120760202407837, -0.13314519822597504, -0.14891231060028076, -0.022463716566562653, 0.17274662852287292, 0.10032312572002411, -0.17158842086791992, 0.04841406270861626, -0.07643841207027435, -0.0898442342877388, -0.11332117766141891, -0.08877011388540268, 0.09175074845552444, 0.12862075865268707, 0.05357829108834267, 0.18457692861557007, -0.1325228065252304, -0.055121053010225296, -0.09290175139904022, 0.01995764672756195, 0.13969101011753082, -0.16174694895744324, -0.19863872230052948, -0.03785769268870354, 0.04272613301873207, -0.11118795722723007, 0.05536249652504921, -0.04380945488810539, -0.10746084898710251, 0.10476499795913696, -0.035424258559942245, -0.038346003741025925, -0.13317672908306122, 0.11026708781719208, 0.06914503872394562, -0.04615869000554085, 0.04685918241739273, -0.15126141905784607, -0.078293077647686, -0.06949879229068756, -0.08173814415931702, 0.016957249492406845, -0.20666690170764923, 0.09908287972211838, -0.05299092456698418, 0.03336026892066002, -0.10633806139230728, 0.041367482393980026, 0.2100832313299179, 0.10866736620664597, -0.1349874585866928, -0.15430466830730438, -0.10556594282388687, -0.03809598460793495, 0.007050247397273779, 0.07000522315502167, -0.08559837937355042, 0.028504006564617157, -0.13021555542945862, 0.13361603021621704, -0.1748048961162567, 0.05368224158883095, 0.00853345450013876, -0.282961905002594, 0.0736575499176979, -0.10478273034095764, 0.0743461400270462, -0.01789080537855625, -0.05065876618027687, 0.003010575892403722, -0.10288754850625992, -0.004557114094495773, -0.0441039614379406, 0.04706733673810959, 0.02994777075946331, -0.10614164173603058, -0.08941306173801422, -0.23818747699260712, 0.06415186077356339, 0.19632971286773682, 0.04731074720621109, 0.14217421412467957, -0.04040888696908951, 0.13511164486408234, 0.009274698793888092, 0.037949372082948685, -0.008455721661448479, 0.20953579246997833, -0.1154949814081192, -0.19547809660434723, 0.07039530575275421, 0.1640215814113617, 0.07175781577825546, -0.06550633162260056, -0.07149896770715714, 0.06624751538038254, -0.23750753700733185, -0.1124689057469368, -0.09394542872905731, 0.17079831659793854, -0.06156986206769943, 0.06920114904642105, -0.04898577183485031, 0.015975605696439743, 0.0920073464512825, -0.059809934347867966, 0.07133495062589645, 0.14375324547290802, -0.06381677091121674, -0.17175942659378052, 0.0007636914378963411, 0.1259688287973404, -0.04591748118400574, -0.008391798473894596, -0.05179958790540695, 0.021551012992858887, -0.0751151368021965, 0.1831107884645462, -0.012676822021603584, -0.023892249912023544, 0.03324050456285477, -0.011603058315813541, -0.0799504891037941, 0.07904776930809021, 0.1807071715593338, 0.1394294947385788, 0.03265363723039627, -0.08050793409347534, 0.029204877093434334, -0.03117961436510086, -0.043370746076107025, 0.13703981041908264, 0.08135250955820084, -0.11087849736213684, 0.059819627553224564, -0.00633523054420948, 0.10639986395835876, -0.09749342501163483, -0.05291391536593437, -0.1029626652598381, -0.05160857364535332, -0.009229037910699844, -0.11127878725528717, 0.03387289494276047, 0.14892378449440002, 0.015437564812600613, -0.12211598455905914, -0.02639210969209671, -0.03287752345204353, 0.08871495723724365, -0.173786461353302, -0.1193486899137497, 0.003628761973232031, 0.022324085235595703, 0.009463277645409107, 0.0847041979432106, -0.02839145064353943, 0.06054558977484703, -0.08000104129314423, 0.04258517175912857, -0.08026963472366333, -0.05058947950601578, -0.12497301399707794, 0.04009607061743736, -0.12489611655473709, -0.06313906610012054, 0.04139726236462593, 0.08262159675359726, 0.09942229092121124, 0.02071573957800865, -0.10664039105176926, -0.23934578895568848, -0.0005545543972402811, 0.02087237872183323, -0.040695760399103165, -0.07147285342216492, 0.18101251125335693, 0.10247824341058731, 0.08957593888044357, 0.0638827458024025, -0.08866310864686966, -0.06230929121375084, -0.0014623126480728388, -0.11732790619134903, -0.035662971436977386, 0.1856677085161209, 0.014519677497446537, -0.08786188066005707, 0.02692686766386032, -0.03299170359969139, -0.2669082283973694, 0.008711956441402435, 0.005778923165053129, -0.13056479394435883, 0.05494772270321846, -0.033557236194610596, -0.01924992725253105, 0.019440481439232826, 0.10248926281929016, -0.04010172560811043, -0.3015156388282776, 0.0753798633813858, 0.1476282775402069, -0.08124414086341858, 0.07358336448669434, -0.11411844193935394, -0.3088732957839966, -0.006736546754837036, 0.030915040522813797, -0.051480650901794434, -0.1085292175412178, 0.021442696452140808, -0.05756889283657074, -0.004327292554080486, -0.11365307867527008, 0.033272892236709595, -0.10227435827255249, 0.05191488564014435, -0.14989815652370453, 0.012915208004415035, -0.07444525510072708, -0.02141893282532692, -0.023515189066529274, 0.05681869760155678, -0.12059736251831055, -0.11527502536773682, 0.14669077098369598, 0.13837598264217377, 0.004278800915926695, -0.13295011222362518, 0.21098779141902924, 0.07804231345653534, 0.0461331270635128, 0.029949773102998734, -0.1280689537525177, -0.16130080819129944, -0.055296555161476135, 0.20063813030719757, -0.02005861885845661, 0.026126673445105553, 0.08670710772275925, -0.010953541845083237, 0.03782958909869194, -0.16367332637310028, 0.16503049433231354, 0.09797662496566772, -0.08283380419015884, 0.024800822138786316, -0.06989647448062897, -0.07145844399929047, -0.14911915361881256, 0.03885824233293533, -0.1168375238776207, 0.11560531705617905, -0.06734926253557205, 0.05634694918990135, 0.03958342969417572, -0.046058498322963715, 0.06265734881162643, 0.1458185315132141, 0.04627138376235962, 0.07907098531723022, -0.16560274362564087, 0.016113027930259705, 0.10102740675210953, -0.13532161712646484, 0.016376495361328125, -0.012037260457873344, -0.23137126863002777, -0.020545585080981255, -0.006861124653369188, 0.0606989786028862, -0.005987468175590038, 0.1363123059272766, 0.07788626104593277, 0.06343110650777817, -0.20653565227985382, -0.021841950714588165, 0.07995240390300751, 0.061789631843566895, -0.10463570803403854, -0.10701747983694077, -0.01955561898648739, -0.07000286877155304, -0.10636585205793381, 0.02908722311258316, 0.04774397984147072, 0.035082440823316574, 0.18402300775051117, -0.06648383289575577, -0.2244047075510025, -0.04487672075629234, 0.056738484650850296, 0.03788237273693085, 0.03969891741871834, 0.07574431598186493, 0.007887771353125572, 0.024262918159365654, -0.025639859959483147, -0.04062700644135475, -0.06934372335672379, 0.0014833746245130897, -0.08249927312135696, -0.26527488231658936, 0.08030565828084946, 0.048435330390930176, -0.0250979233533144, 0.13034948706626892, 0.12304142862558365, -0.014413419179618359, -0.022467266768217087, 0.07067722827196121, 0.07095665484666824, 0.03628237172961235, 0.19734686613082886, -0.1252586394548416, 0.05286003276705742, -0.11539458483457565, 0.1540335714817047, -0.02759373001754284, -0.23253417015075684, 0.020851541310548782, -0.08709373325109482, 0.04567590728402138, 0.01761787012219429, -0.09775622189044952, 0.0972980335354805, 0.108438640832901, 0.14288710057735443, -0.09414802491664886, 0.017095625400543213, 0.10881216078996658, 0.07031092792749405, 0.03227577731013298, 0.024924390017986298, -0.02462947368621826, 0.07755293697118759, -0.00914075132459402, -0.08069929480552673, -0.07137328386306763, -0.22799895703792572, 0.05235278606414795, -0.11373179405927658, -0.02594899944961071, -0.10846440494060516, 0.02172904834151268, -0.10226503759622574, 0.19112063944339752, -0.09958145022392273, -0.033431895077228546, -0.0488998107612133, -0.1093510314822197, 0.06083440035581589, 0.1151011735200882, 0.01344806794077158, -0.04672452062368393, -0.015402593649923801, 0.19989588856697083, 0.029621893540024757, -0.06522665172815323, 0.0653061494231224, 0.030583670362830162, -0.014441450126469135, -0.09301294386386871, -0.05390274524688721, 0.01646600104868412, -0.053452376276254654, -0.07669753581285477, -0.10883574932813644, 0.056540124118328094, -0.14915329217910767, -0.006810233928263187, 0.01852594129741192, -0.22816959023475647, -0.05415663868188858, -0.06410736590623856, -0.06258872896432877, -0.09748537838459015, -0.05414998531341553, 0.023154636844992638, -0.0417284294962883, 0.11338648200035095, 0.007100910879671574, 0.026924604550004005, -0.04866214841604233, -0.02639600820839405, -0.10698514431715012, 0.06853149086236954, -0.1898164600133896, 0.058839526027441025, 0.11326026916503906, 0.1568552553653717, 0.0736054852604866, -0.004685436375439167, 0.09450914710760117, -0.059015002101659775, -0.03763064742088318, -0.09600427001714706, -0.08421400934457779, 0.08539395779371262, -0.04717374965548515, -0.004515995271503925, 0.03212406858801842, 0.04273855686187744, 0.019724195823073387, -0.01637762412428856, 0.08352065831422806, -0.1355348378419876, -0.005663643125444651, 0.050615694373846054, -0.16424457728862762, -0.06390023231506348, -0.19559167325496674, -0.15146587789058685, 0.08708643168210983, 0.06365113705396652, 0.1226673275232315, 0.03583790361881256, -0.09050663560628891, 0.07159740477800369, -0.06018286943435669, -0.05588797479867935, -0.15102963149547577, -0.02817632630467415, -0.020763108506798744, -0.026768943294882774, -0.17261366546154022, 0.01835375279188156, -0.059283092617988586, -0.06294070929288864, -0.16803710162639618, 0.014124223962426186, -0.010323352180421352, 0.007409834302961826, -0.08997231721878052, 0.062086619436740875, 0.020250439643859863, -0.023573821410536766, 0.0224605705589056, 0.18583782017230988, -0.1540776491165161, 0.02313309907913208, 0.08213257789611816, 0.1298326998949051, -0.05757185444235802, 0.08544527739286423, 0.020861320197582245, 0.09960692375898361, 0.24378858506679535, -0.020915517583489418, -0.029946228489279747, 0.26849105954170227, -0.007415815256536007, 0.09826493263244629, -0.10383141040802002, -0.005048292223364115, -0.039362624287605286, -0.003038052935153246, -0.026303324848413467, -0.031255923211574554, -0.025728903710842133, 0.08233048766851425, 0.08060627430677414, 0.16615751385688782, -0.005049728322774172, -0.11493877321481705, -0.09720388054847717, 0.26192206144332886, 0.06373375654220581, -0.13857083022594452, 0.055282074958086014, -0.09076271206140518, 0.09991394728422165, -0.009662285447120667, 0.005385061725974083, 0.008359620347619057, -0.0014951273333281279, 0.23683463037014008, -0.18497875332832336, -0.04328764230012894, 0.00030368525767698884, -0.150840625166893, -0.08833146840333939, -0.02150968834757805, 0.021373871713876724, 0.08492584526538849, 0.08332806825637817, -0.3498600125312805, -0.10188790410757065, -0.12907563149929047, 0.09732593595981598, 0.05687398090958595, 0.13604439795017242, -0.3176629841327667, 0.0862547904253006, 0.22337636351585388, -0.04614377021789551, -0.1766187697649002, -0.02707766927778721, -0.0031948541291058064, 0.06841308623552322, 0.019700219854712486, 0.040955301374197006, -0.018773188814520836, -0.0853656753897667, 0.05754058063030243, -0.1868794560432434, 0.05323797091841698, -0.18494077026844025, 0.22557269036769867, -0.005285650957375765, 0.031293366104364395, -0.005959844216704369, 0.12469510734081268, -0.09174732118844986, 0.044344767928123474, -0.06820312142372131, -0.10717224329710007, 0.05311623960733414, -0.045566532760858536, 0.015177133493125439, -0.14519719779491425, 0.028552720323204994, 0.02166913077235222, -0.26920285820961, -0.05306142196059227, 0.06612204015254974, 0.023221172392368317, 0.012440063990652561, -0.2070467621088028, -0.2812812626361847, -0.12028471380472183, -0.10745949298143387, 0.18478357791900635, 0.18113501369953156, 0.010434559546411037, 0.20459279417991638, -0.17237640917301178, -0.0762186348438263, 0.05915463715791702, -0.06304290145635605, -0.15018413960933685, -0.11280977725982666, -0.20739105343818665, -0.17061950266361237, -0.047641292214393616, -0.2450500726699829, -0.09940272569656372, 0.07365605980157852, 0.07230126857757568, -0.16911958158016205, -0.12619708478450775, 0.06590081751346588, 0.07027549296617508, 0.015393686480820179, 0.08511632680892944, 0.03820651397109032, -0.22219479084014893, 0.11373139172792435, 0.060729626566171646, -0.06901488453149796, 0.13607361912727356, -0.049288466572761536, -0.06521577388048172, 0.07164666801691055, 0.09302790462970734, 0.2647070288658142, -0.07261423021554947, 0.03050648234784603, -0.07303869724273682, 0.09956904500722885, 0.15674486756324768, -0.10778231918811798, -0.06667075306177139, -0.023956075310707092, -0.04900287464261055, -0.08466766774654388, 0.0834956243634224, 0.09587123245000839, -0.058079008013010025, -0.18824687600135803, -0.03786523640155792, 0.0053137121722102165, 0.0643564984202385, 0.09593416005373001, -0.2003144472837448, 0.14713840186595917, 0.029385678470134735, 0.06814192980527878, -0.01641136035323143, 0.09842021763324738, 0.0391496904194355, -0.11484304815530777, 0.003886284539476037, -0.11045745760202408, -0.10850626975297928, 0.09705862402915955, 0.009043973870575428, 0.11555188149213791, 0.03932388126850128, -0.0172172412276268, -0.04767049849033356, -0.07867593318223953, 0.07046272605657578, 0.06718939542770386, -0.027491146698594093, -0.10370386391878128, -0.0020878382492810488, -0.033109042793512344, 0.19235347211360931, 0.019909963011741638, 0.1394302099943161, -0.06625938415527344, -0.08514843136072159, -0.04253771901130676, 0.20285873115062714, 0.1286865770816803, -0.05180776119232178, 0.04346141219139099, 0.06476455926895142, 0.046016499400138855, 0.11156146228313446, 0.04555942118167877, 0.05788637325167656, -0.03646640107035637, -0.05548443645238876, 0.08490019291639328, -0.006220654118806124, -0.19522219896316528, -0.04828784987330437, -0.05911558121442795, 0.06253925710916519, 0.015573366545140743, -0.038456112146377563, 0.10576831549406052, -0.050519078969955444, 0.11037202179431915, -0.053282730281353, -0.10425560921430588, -0.07596417516469955, -0.03456186503171921, -0.1016773208975792, 0.18650786578655243, 0.05261353775858879, 0.03848997876048088, 0.12167666107416153, -0.047572631388902664, -0.0007835010765120387, 0.08660347759723663, 0.0540204755961895, -0.15587888658046722, -0.2360856533050537, -0.12953974306583405, -0.10282539576292038, 0.07228153198957443, 0.04846591129899025, 0.05552239716053009, -0.016650566831231117, -0.05280160903930664, 0.2103542536497116, -0.0053598880767822266, -0.013369906693696976, -0.08643729984760284, -0.18542997539043427, 0.14409762620925903, -0.11550386995077133, -0.08591406047344208, -0.014985381625592709, 0.1533212810754776, -0.14524175226688385, -0.24635308980941772, -0.06354411691427231, -0.09240501374006271, 0.09675311297178268, -0.03870090842247009, -0.03070118837058544, -0.017160847783088684, -0.0909479409456253, 0.22770081460475922, 0.15040576457977295, 0.15106767416000366, 0.056151941418647766, -0.15944065153598785, 0.24061791598796844, 0.0036405662540346384, -0.04193178191781044, -0.24266071617603302, -0.2875078320503235, -0.028500588610768318, 0.17987006902694702, -0.11366832256317139, 0.02263067103922367, 0.03573383390903473, 0.14096122980117798, -0.002953910967335105, -0.22200511395931244, -0.05143754184246063, 0.07071805000305176, 0.06366690248250961, -0.08439385890960693, -0.06892294436693192, 0.06048814579844475, 0.2111925631761551, 0.29549920558929443, 0.005391570273786783, -0.24328717589378357, 0.032162558287382126, -0.21672087907791138, -0.10954032838344574, 0.1713694930076599, 0.243062824010849, -0.02460191212594509, -0.0630372166633606, -0.1668238788843155, 0.06032944098114967, -0.0005759972264058888, 0.07815799117088318, 0.20887859165668488, -0.22655540704727173, 0.04337590932846069, -0.22577935457229614, 0.030683547258377075, 0.03806474804878235, -0.056368809193372726, 0.0228929091244936, 0.02000771090388298, 0.3287143111228943, -0.012386530637741089, -0.11652563512325287, -0.0672801062464714, 0.14022447168827057, -0.08026093989610672, -0.029169149696826935, -0.139335036277771, -0.04082247614860535, 0.21384412050247192, -0.026013124734163284, 0.18303658068180084, -0.02600647136569023, 0.06537195295095444, 0.17147326469421387, 0.09807727485895157, 0.23118197917938232, -0.10313619673252106, -0.08071820437908173, 0.22576354444026947, 0.1903945952653885, -0.12615559995174408, -0.22340956330299377, -0.025367457419633865, -0.05214017257094383, -0.12215050309896469, 0.3210984468460083, 0.03711827099323273, 0.22573088109493256, 0.175635427236557, 0.17137980461120605, -0.1421021819114685, -0.09224804490804672, 0.060680605471134186, -0.07316818833351135, 0.15284934639930725, -0.05765080079436302, 0.017056653276085854, -0.17990316450595856, 0.2865963280200958, -0.10726573318243027, 0.016529059037566185, -0.14845938980579376, 0.054298970848321915, -0.18278561532497406, -0.10362691432237625, -0.14304688572883606, 0.0899333655834198, 0.07243485748767853, 0.14522428810596466, 0.14866872131824493, -0.10401823371648788, -0.15894411504268646, -0.03171858936548233, 0.05768365040421486, -0.09198879450559616, 0.1624765545129776, -0.12260767817497253, 0.05933468043804169, -0.08133455365896225, -0.06390456110239029, -0.21653389930725098, 0.09902498126029968, -0.03468333184719086, -0.08302908390760422, 0.02012324519455433, 0.03611520305275917, 0.12227843701839447, -0.3140968084335327, 0.046586547046899796, -0.005348679609596729, -0.06156868860125542, 0.10295748710632324, 0.0185809675604105, -0.1002691388130188, -0.0007331664673984051, -0.03642793744802475, -0.13033777475357056, -0.01292323973029852, -0.09885915368795395, 0.03146470710635185, -0.17110437154769897, 0.1166302040219307, -0.012942454777657986, 0.11665230244398117, 0.16747258603572845, -0.10141786932945251, -0.20245158672332764, -0.007286056410521269, 0.03254392743110657, -0.16796167194843292, 0.11410326510667801, 0.06626968085765839, 0.13987374305725098, -0.23617203533649445, -0.009169302880764008, -0.040834441781044006, 0.08605573326349258, 0.07262097299098969, -0.13384170830249786, -6.054496770957485e-05, 0.04977329820394516, -0.027181478217244148, -0.1089802235364914, -0.05456775426864624, 0.01290227472782135, -0.21956376731395721, 0.046378280967473984, -0.1896992176771164, -0.2069801688194275, 0.05956922844052315, 0.07189273089170456, 0.17917470633983612, 0.01548630278557539, 0.024993229657411575, -0.16489115357398987, -0.1270933747291565, -0.043184347450733185, -0.08886799216270447, 0.07624611258506775, -0.08341754972934723, 0.16092781722545624, 0.08910751342773438, 0.10806217044591904, -0.19083744287490845, -0.04415842145681381, 0.0018993767444044352, -0.020521940663456917, -0.1251087486743927, 0.06225518137216568, -0.0803551897406578, 0.025989480316638947, -0.001781005528755486, 0.13334311544895172, 0.06147301569581032, -0.014757128432393074, -0.160710871219635, 0.15664277970790863, -0.134532168507576, 0.0934973657131195, -0.09042571485042572, -0.05221898481249809, -0.07067643105983734, -0.03025859221816063, -0.052209410816431046, 0.12936684489250183, -0.014077015221118927, 0.02014540135860443, 0.17837271094322205, -0.037913620471954346, -0.0003338971873745322, -0.1154276505112648, -0.03142382949590683, -0.1208069697022438, -0.0035473452880978584, 0.14965996146202087, -0.09735731035470963, -0.03591730073094368, 0.2270241528749466, 0.10233988612890244, -0.09880493581295013, 0.03339507803320885, 0.25140365958213806, 0.12237503379583359, -0.15720592439174652, -0.06359167397022247, -0.12089775502681732, -0.11258389055728912, 0.038016896694898605, -0.11225756257772446, 0.0021073936950415373, 0.000924346037209034, -0.20009395480155945, 0.16537298262119293, 0.09806053340435028, 0.1055968627333641, 0.0829145759344101, -0.07798655331134796, 0.07966677844524384, -0.10192521661520004, -0.012450261041522026, 0.04638976603746414, 0.014088945463299751, -0.15171758830547333, 0.07295858860015869, 0.10365749895572662, 0.08432799577713013, -0.05038755014538765, -0.17793862521648407, -0.06924629956483841, 0.035836391150951385, 0.09389206022024155, 0.17382623255252838, 0.04119601100683212, 0.015414849855005741, 0.003568336134776473, -0.009352370165288448, 0.10219832509756088, -0.0523252971470356, 0.012818938121199608, 0.031827617436647415, 0.125418558716774, 0.12835432589054108, -0.060301706194877625, -0.1292455494403839, 0.27500152587890625, -0.06942121684551239, 0.005254994612187147, -0.0944148451089859, 0.15053562819957733, 0.07558774203062057, 0.2089666724205017, 0.005600497592240572, -0.12823724746704102, -0.1419505476951599, -0.08889572322368622, -0.011461935006082058, -0.016161950305104256, -0.07514255493879318, -0.1459197998046875, -0.013035356067121029, 0.13878843188285828, -0.08536969125270844, -0.17550256848335266, -0.10560235381126404, -0.04228217899799347, 0.036606334149837494, 0.025045126676559448, 0.01694289594888687, 0.04262743517756462, 0.045734480023384094, 0.12356553971767426, -0.019617080688476562, -0.009295287542045116, 0.01319199800491333, 0.20557677745819092, -0.023753322660923004, -0.06565448641777039, 0.042208414524793625, 0.06736800074577332, 0.14489224553108215, -0.18741028010845184, 0.07165543735027313, 0.15648828446865082, 0.02288874424993992, 0.17301373183727264, 0.0187620110809803, -0.087900310754776, -0.15923045575618744, 0.20072554051876068, -0.08072592318058014, 0.005953261163085699, -0.03943406417965889, -0.05380000174045563, -0.06510455161333084, 0.05496881902217865, 0.046327803283929825, 0.05042508617043495, -0.07526012510061264, 0.11406078189611435, -0.004026711452752352, -0.052054181694984436, -0.2290029376745224, 0.1768890619277954, 0.03179560974240303, 0.0464312806725502, 0.036941103637218475, 0.04381762817502022, -0.03741078078746796, 0.00454252865165472, 0.04869353398680687, -0.15388798713684082, -0.05364879593253136, -0.0769529789686203, -0.0007015232113189995, 0.012266531586647034, 0.11108847707509995, -0.11405762284994125, 0.008000358939170837, -0.030811214819550514, 0.046578630805015564, -0.09066475182771683, -0.0032466291449964046, -0.07581440359354019, -0.2882338762283325, -0.11897192895412445, -0.11382173001766205, -0.07362139970064163, -0.03608778491616249, -0.007499171886593103, 0.13271524012088776, 0.013579566963016987, -0.030518313869833946, 0.05890015885233879, 0.06607098877429962, -0.11200857907533646, -0.11637332290410995, -0.15729431807994843, 0.05796748772263527, -0.13190411031246185, -0.10830763727426529, -0.09736478328704834, -0.12346140295267105, -0.08898747712373734, -0.18392214179039001, 0.06041254848241806, -0.025846688076853752, 0.08040063828229904, -0.13818931579589844, -0.018698474392294884, -0.07139477133750916, 0.007243514060974121, 0.11386514455080032, 0.07915366441011429, -0.17856481671333313, -0.06310635060071945, 0.07653334736824036, 0.2585481107234955, 0.025098036974668503, 0.0515131913125515, -0.04688391461968422, 0.15002430975437164, 0.11558200418949127, 0.03926045075058937, -0.13263075053691864, 0.0624348521232605, -0.15344193577766418, 0.08507433533668518, 0.068116694688797, -0.09344524145126343, -0.07902461290359497, 0.08067671954631805, -0.13289642333984375, -0.049807723611593246, -0.013769960030913353, 0.05655485764145851, -0.12728609144687653, -0.04234999790787697, -0.15207220613956451, -0.04207545891404152, 0.023076513782143593, 0.26165643334388733, 0.005200032144784927, -0.05805297568440437, 0.03627349063754082, 0.14411351084709167, -0.00038266388582997024, 0.011514421552419662, -0.023037303239107132, -0.21148303151130676, -0.05118448659777641, 0.24559904634952545, -0.0881568044424057, -0.06383656710386276, -0.07542192190885544, -0.18928000330924988, -0.09359771758317947, -0.09060505777597427, 0.19557467103004456, 0.08195438235998154, 0.05759434774518013, -0.21765469014644623, 0.08277664333581924, -0.07930335402488708, -0.011287607252597809, 0.10223829001188278, 0.17466481029987335, -0.11766848713159561, -0.025355039164423943, 0.1102335974574089, -0.07375384122133255, -0.23469266295433044, -0.04888320714235306, -0.17032189667224884, 0.11428023129701614, 0.06377499550580978, -0.03708859905600548, -0.09633029252290726, -0.08850619196891785, -0.1484418660402298, 0.02244056761264801, 0.08467753976583481, -0.09081710129976273, 0.24757924675941467, -0.09778325259685516, -0.03578232228755951, 0.0471007414162159, 0.25371116399765015, 0.08607210218906403, 0.0453215092420578, -0.17630146443843842, -0.05294142663478851, 0.0627209022641182, -0.06367932260036469, 0.041080839931964874, -0.006500445771962404, -0.16467902064323425, -0.03347747400403023, -0.2039785236120224, 0.01671123504638672, 0.053754016757011414, 0.08902173489332199, -0.015003659762442112, -0.03718895465135574, 0.01864953339099884, -0.06895230710506439, -0.12317358702421188, 0.14057011902332306, -0.07865805923938751, 0.00021707607083953917, 0.21959424018859863, -0.11504610627889633, -0.2498110681772232, -0.06213759630918503, 0.00046016479609534144, -0.024241555482149124, -0.09954962879419327, -0.22341249883174896, -0.19014185667037964, 0.1890469193458557, 0.02984442748129368, 0.017001062631607056, -0.0265260748565197, 0.1864963173866272, -0.21948865056037903, -0.10823974758386612, 0.06597145646810532, 0.018566623330116272, 0.043500833213329315, 0.04493742436170578, -0.06335069984197617, -0.11200984567403793, 0.06186496093869209, 0.1442757397890091, -0.264226496219635, 0.020546698942780495, 0.01660112477838993, -0.09201505035161972, -0.02447999082505703, 0.006250561214983463, 0.02428409643471241, -0.09801975637674332, 0.0599634125828743, -0.02115504816174507, -0.11780330538749695, 0.09324901551008224, -0.013675150461494923, -0.07874475419521332, -0.04200344160199165, 0.048708658665418625, 0.0267949141561985, -0.022177688777446747, 0.06150774285197258, 0.049700167030096054, -0.14973166584968567, 0.04166492447257042, -0.09919293969869614, 0.08964646607637405, 0.0199701189994812, 0.055577218532562256, 0.07780986279249191, -0.018542513251304626, 0.055190786719322205, 0.08414962887763977, 0.13738635182380676, -0.07378524541854858, 0.06554710865020752, 0.09136707335710526, 0.08858934789896011, -0.07856965810060501, 0.03679388016462326, 0.1448456048965454, 0.013974114321172237, -0.05368455499410629, -0.032448891550302505, -0.05070699751377106, 0.09365523606538773, 0.022238511592149734, -0.026612048968672752, 0.09091806411743164, 0.01050987746566534, -0.002917112782597542, -0.09199448674917221, -0.12843231856822968, -0.000152959197293967, -0.07020257413387299, -0.11373631656169891, -0.10127274692058563, -0.2196473926305771, -0.16191022098064423, 0.03557762876152992, -0.10605969280004501, -0.05922599509358406, 0.16098277270793915, -0.14057767391204834, -0.0020473161712288857, -0.06815782934427261, 0.15819992125034332, 0.058119840919971466, -0.003968693781644106, -0.01016987580806017, -0.04958095774054527, -0.2631918489933014, 0.07918059825897217, 0.025140566751360893, 0.038970280438661575, -0.06789957731962204, -0.16182957589626312, -0.0032945878338068724, 0.07125037163496017, -0.04933858662843704, -0.22401055693626404, -0.05357292294502258, 0.0756911188364029, -0.064115509390831, 0.04975613206624985, 0.04769265651702881, -0.01711348071694374, 0.045408762991428375, 1.53106520883739e-06, -0.07241327315568924, -0.128381609916687, -0.05355802923440933, 0.018489763140678406, -0.13361012935638428, -0.03827069699764252, -0.10815269500017166, -0.13414190709590912, 0.07206982374191284, -0.059685446321964264, 0.08272372931241989, 0.0019220177782699466, -0.12313052266836166, -0.020855898037552834, -0.2258969396352768, -0.11746833473443985, -0.062220338732004166, -0.1508384495973587, -0.027159303426742554, -0.028001386672258377, -0.021174388006329536, 0.09621485322713852, -0.032927583903074265, 0.09905599057674408, -0.15072500705718994, 0.11208421736955643, -0.1109297052025795, 0.04415552318096161, -0.005225176457315683, 0.08220677077770233, -0.10787954926490784, 0.10384438186883926, -0.23518308997154236, 0.15799462795257568, -0.12261561304330826, 0.12621401250362396, -0.12013211846351624, -0.05164545029401779, 0.05331576615571976, 0.07234286516904831, 0.01446760818362236, -0.1724606156349182, 0.016025297343730927, 0.03173691779375076, 0.01619068533182144, 0.12603403627872467, -0.007896562106907368, -0.12163364142179489, -0.01530399452894926, 0.12868115305900574, -0.01204796601086855, -0.038940731436014175, 0.10416814684867859, 0.08349274098873138, -0.2549474835395813, 0.12432632595300674, -0.14338746666908264, 0.12067843228578568, 0.07697375863790512, -0.10653050243854523, -0.05672389268875122, -0.014526530168950558, -0.09857896715402603, 0.013838240876793861, -0.10722173005342484, 0.016588281840085983, -0.05320626497268677, 0.06650066375732422, 0.0022618796210736036, -0.14284202456474304, 0.012197909876704216, 0.17886264622211456, 0.03413677215576172, -0.04918114095926285, -0.058290861546993256, -0.0029584642034024, 0.09011466056108475, -0.0001968143624253571, -0.04441240802407265, 0.14569535851478577, -0.1088399812579155, -0.034612830728292465, -0.0899023562669754, 0.049403950572013855, -0.10111039131879807, 0.12253512442111969, -0.05242185294628143, -0.04284670576453209, -0.10457678139209747, 0.11493134498596191, -0.08706129342317581, -0.07857837527990341, 0.010232549160718918, 0.08168715238571167, 0.036790765821933746, 0.07817728072404861, -0.049111079424619675, 0.16981013119220734, -0.08326126635074615, -0.07175084948539734, -0.006495441775768995, -0.0368354469537735, -0.1172114908695221, 0.0007750726072117686, -0.06492021679878235, 0.06485402584075928, -0.08222970366477966, -0.08969155699014664, 0.19862346351146698, -0.11514035612344742, 0.0017282901098951697, -0.07240790873765945, -0.002375967800617218, 0.02930094487965107, -0.0075338780879974365, -0.07173870503902435, -0.02934982068836689, 0.08699633926153183, -0.004061106592416763, -0.016186658293008804, 0.0008011435274966061, 0.00017901667160913348, 0.0954895094037056, 0.0754082202911377, -0.14236408472061157, -0.11924059689044952, 0.11371055245399475, 0.015743575990200043, -0.030053939670324326, 0.0057394783943891525, -0.009334851056337357, -0.062246449291706085, -0.12115781009197235, 0.18681074678897858, -0.11447583138942719, -0.048713430762290955, -0.040715958923101425, -0.15197326242923737, -0.06439939141273499, 0.014523658901453018, 0.007364137563854456, 0.021144602447748184, 0.038407616317272186, -0.021537024527788162, 0.08021505922079086, -0.07861983776092529, -0.06639941781759262, 0.02434130571782589, -0.17150038480758667, 0.06637096405029297, 0.045149486511945724, 0.059909921139478683, -0.025824381038546562, 0.034276384860277176, -0.26295098662376404, 0.09223166853189468, -0.02036251872777939, -0.08434825390577316, 0.041844308376312256, -0.07457326352596283, -0.21644559502601624, -0.20576617121696472, -0.1105465367436409, -0.04839121922850609, -0.061310090124607086, 0.06878099590539932, -0.07893603295087814, -0.27098843455314636, -0.04531615599989891, -0.10413692891597748, -0.17494715750217438, 0.07541939616203308, 0.013460466638207436, 0.02063979022204876, -0.09755547344684601, 0.059712085872888565, 0.0715998187661171, 0.06363500654697418, 0.09829418361186981, -0.05764032155275345, 0.051627859473228455, -0.0020248382352292538, 0.08494699746370316, 0.12153846025466919, 0.14163842797279358, -0.13868984580039978, 0.061617251485586166, 0.011310173198580742, -0.15223412215709686, -0.10245639830827713, -0.07388992607593536, 0.01622290350496769, -0.012874727137386799, 0.00273261871188879, -0.1038287803530693, 0.026001159101724625, 0.02656829170882702, -0.07297585904598236, -0.21018584072589874, -0.03834149241447449, -0.12563735246658325, 0.18426764011383057, -0.04828580841422081, -0.09869494289159775, -0.14271681010723114, -0.17419585585594177, -0.03434644639492035, -0.1010420173406601, -0.1162131056189537, -0.03590654209256172, 0.001178891398012638, 0.07602538168430328, -0.029849568381905556, 0.16159018874168396, 0.027058418840169907, -0.011217272840440273, -0.10050688683986664, 0.062156792730093, -0.007940277457237244, 0.0009955549612641335, 0.06077946722507477, 0.0658605694770813, -0.11611300706863403, -0.005881535355001688, 0.10747536271810532, 0.0369943343102932, 0.0972781702876091, -0.050959330052137375, 0.10157287865877151, 0.06591421365737915, -0.032385338097810745, -0.25490689277648926, 0.05645810812711716, -0.02931777946650982, -0.046167198568582535, 0.11414514482021332, -0.14939498901367188, -0.007283160928636789, 0.1375395804643631, 0.05119863897562027, 0.06833851337432861, 0.05826805904507637, 0.031241003423929214, 0.18441513180732727, -0.18312913179397583, -0.09742197394371033, -0.1585644781589508, -0.17147769033908844, -0.0034531159326434135, -0.09227298945188522, -0.0800589770078659, 0.057121049612760544, 0.017786335200071335, 0.15067413449287415, -0.08144952356815338, -0.04160173237323761, 0.030728843063116074, -0.09764987975358963, 0.10047779977321625, 0.03203154727816582, -0.007762710098177195, 0.07387245446443558, 0.06957527250051498, -0.053461603820323944, 0.07581524550914764, 0.07797019183635712, -0.045801203697919846, 0.10296126455068588, -0.17840036749839783, 0.0011331757996231318, -0.1201232448220253, -0.10007747262716293, -0.17151986062526703, 0.0898507833480835, -0.08497103303670883, 0.09787102043628693, -0.17656603455543518, -0.10207100212574005, 0.1218455359339714, -0.09967757016420364, -0.20748397707939148, -0.3978717029094696, 0.07237916439771652, 0.03177306801080704, 0.2166878581047058, 0.06682907044887543, -0.04373953491449356, -0.14115646481513977, -0.11586038768291473, -0.22237618267536163, -0.046704042702913284, 0.1824488788843155, 0.10647416859865189, -0.04560587555170059, -0.09049853682518005, -0.049698684364557266, -0.08349966257810593, 0.11063473671674728, 0.02782156877219677, 0.0810382291674614, 0.07764547318220139, 0.0015633224975317717, 0.08358314633369446, -0.044917475432157516, -0.020417317748069763, -0.050748445093631744, 0.00493211904540658, 0.15003088116645813, -0.15069812536239624, -0.07068797945976257, 0.03998146951198578, 0.20509515702724457, 0.006307628005743027, -0.08958163112401962, -0.05567717179656029, 0.00746772950515151, -0.05397568270564079, -0.028243515640497208, -0.08576934784650803, -0.09221524745225906, -0.08913258463144302, 0.07937251776456833, -0.10457808524370193, -0.08399465680122375, -0.061559583991765976, 0.007756945211440325, -0.2588416635990143, 0.010588853619992733, -0.312644362449646, 0.07042020559310913, -0.0488114170730114, 0.09891572594642639, 0.1034739762544632, 0.1965709924697876, -0.03867458924651146, -0.060304611921310425, -0.0696687400341034, 0.011304758489131927, 0.011198113672435284, 0.11904746294021606, -0.0045960163697600365, -0.1212865561246872, -0.11808352172374725, -0.03378720209002495, 0.08257593214511871, 0.12300199270248413, -0.025910500437021255, -0.05808301270008087, 0.10453877598047256, -0.07878520339727402, 0.08014180511236191, -0.20351918041706085, -0.014998618513345718, -0.003315612208098173, 0.0477951280772686, 0.15092460811138153, -0.11952650547027588, -0.10285796225070953, -0.018542326986789703, 0.03421461582183838, -0.010814380832016468, -0.1372818797826767, 0.2655423879623413, 0.020211482420563698, -0.17976368963718414, 0.03227251023054123, -0.1147780567407608, -0.11749421805143356, -0.06863003224134445, 0.06254579871892929, -0.17746974527835846, 0.04191772639751434, -0.09408871084451675, 0.019213564693927765, 0.027101987972855568, 0.04394005611538887, 0.18620388209819794, -0.14901462197303772, -0.06723844259977341, -0.20501746237277985, 0.0640360414981842, 0.14505408704280853, -0.06510807573795319, -0.07117900252342224, 0.08331254869699478, 0.12958316504955292, -5.418742875917815e-05, 0.06561695039272308, -0.30636706948280334, 0.010367910377681255, 0.06868551671504974, 0.07483784109354019, -0.1296232044696808, 0.09240561723709106, 0.021315736696124077, 0.007424874231219292, -0.0345223993062973, 0.20776806771755219, -0.07222260534763336, 0.08798439055681229, -0.44319948554039, -0.4256901443004608, -0.13563767075538635, 0.05698411166667938, 0.0030563678592443466, -0.1699100285768509, -0.01947399601340294, 0.14109112322330475, -0.05288367718458176, -0.0028516254387795925, -0.13265183568000793, -0.11821996420621872, -0.25328782200813293, -0.06982319802045822, -0.0001341092720394954, 0.17246945202350616, 0.21306000649929047, 0.12863107025623322, -0.15638354420661926, -0.09158004075288773, 0.2142372578382492, -0.42998436093330383, -0.1082153394818306, 0.12635673582553864, 0.14916150271892548, 0.14424370229244232, 0.08027544617652893, -0.09190947562456131, -0.036662884056568146, 0.02861381322145462, 0.07858595997095108, 0.03353255242109299, -0.3950529098510742, -0.029093816876411438, -0.21462799608707428, 0.056079231202602386, 0.25176897644996643, -0.05638682842254639, 0.16062873601913452, -0.030286943539977074, 0.12990809977054596, -0.06888600438833237, -0.04397540166974068, -0.3131237030029297, 0.129008948802948, -0.018446022644639015, -0.17999550700187683, -0.2606196105480194, 0.08468574285507202, 0.16726569831371307, -0.0633074939250946, 0.17198339104652405, 0.19505223631858826, 0.08048322051763535, 0.0932646095752716, 0.14626213908195496, 0.06936189532279968, -0.1164918839931488, -0.1776689887046814, 0.13119196891784668, 0.30812692642211914, 0.05555254593491554, -0.2700503170490265, -0.002276100218296051, -0.10275649279356003, -0.1503596007823944, 0.22081789374351501, -0.21797077357769012, 0.16277413070201874, 0.06207483634352684, -0.13416855037212372, -0.3014569878578186, -0.07937632501125336, -0.03049306571483612, -0.10544519126415253, 0.10946936905384064, -0.002190794562920928, -0.0663372203707695, -0.29191854596138, 0.26410481333732605, -0.005056887399405241, -0.042808644473552704, -0.13877029716968536, -0.06755325943231583, -0.5774016380310059, -0.14936578273773193, -0.16076095402240753, -0.06567930430173874, 0.09387412667274475, 0.04935166612267494, 0.05680721998214722, -0.10319541394710541, -0.18658864498138428, -0.027290891855955124, -0.2229200005531311, -0.11463726311922073, -0.04308277368545532, -0.16611100733280182, -0.0849791020154953, 0.06596966832876205, -0.10583550482988358, -0.0016385922208428383, 0.14919374883174896, 0.08602790534496307, -0.17711181938648224, 0.11414409428834915, -0.009144038893282413, 0.19513504207134247, -0.37663960456848145, 0.05925574526190758, -0.06239214166998863, 0.042472220957279205, 0.0385124497115612, 0.031692929565906525, 0.17979827523231506, 0.08422739058732986, -0.02882673591375351, 0.2438104748725891, 0.008219108916819096, 0.03464915603399277, -0.40930303931236267, -0.5094782710075378, -0.025725804269313812, 0.06708022952079773, -0.11160852760076523, -0.13323353230953217, 0.09774626046419144, 0.07947345823049545, 0.001660774927586317, -0.020231401547789574, 0.004437546711415052, -0.21446017920970917, 0.004705133847892284, -0.09554905444383621, -0.04606466367840767, 0.1969933658838272, 0.07124210149049759, 0.12534041702747345, -0.06149576976895332, 0.0729493498802185, -0.10203554481267929, -0.3094809651374817, -0.028510568663477898, 0.12299300730228424, 0.0014990405179560184, 0.020635731518268585, 0.2340235412120819, 0.1450825333595276, 0.029016008600592613, 0.11217931658029556, -0.05161494389176369, 0.041945431381464005, -0.20725660026073456, -0.09217232465744019, -0.11673542112112045, 0.09810572862625122, 0.21819531917572021, -0.02904793620109558, 0.13374418020248413, 0.07402045279741287, 0.2403811663389206, 0.038483235985040665, 0.018436342477798462, -0.0969185084104538, -0.034260232001543045, 0.01959148608148098, -0.11694581806659698, -0.21931026875972748, -0.008399422280490398, 0.0703987404704094, 0.19207362830638885, 0.04807687923312187, 0.02953426167368889, 0.17500534653663635, -0.0347461923956871, 0.15774117410182953, 0.2977689206600189, -0.10170016437768936, 0.13623858988285065, 0.2163875848054886, -0.10352104157209396, 0.02893086150288582, -0.06001898646354675, -0.12960007786750793, 0.062128856778144836, -0.16523665189743042, 0.31991198658943176, -0.28779539465904236, 0.012368989177048206, 0.08330444246530533, 0.08731430768966675, -0.21724095940589905, -0.09283019602298737, 0.06899556517601013, -0.00726561201736331, -0.06013623625040054, 0.16362890601158142, -0.03002149425446987, -0.20215196907520294, 0.26098838448524475, -0.05130557343363762, -0.07996852695941925, -0.16096167266368866, -0.08245240151882172, 0.04842400178313255, -0.00592985050752759, 0.03590651974081993, -0.1386522352695465, 0.03483830764889717, -0.022193873301148415, 0.145734503865242, 0.03425867483019829, 0.06350822001695633, -0.06113829091191292, -0.15743640065193176, -0.025551777333021164, 0.06301663815975189, 0.021876227110624313, -0.07480344921350479, -0.09834092110395432, 0.0461122989654541, -0.11332232505083084, -0.07880903035402298, 0.002626013243570924, -0.041379332542419434, -0.09049343317747116, -0.006595519371330738, 0.16123338043689728, -0.04589831829071045, -0.06832706183195114, 0.035583194345235825, 0.1549680233001709, -0.15754276514053345, 0.013063286431133747, -0.02837318368256092, 0.09630277752876282, -0.11313746124505997, 0.039703547954559326, 0.05474917218089104, 0.05199509114027023, 0.05661727488040924, 0.06642559170722961, 0.20844866335391998, -0.09716009348630905, 0.0621582567691803, 0.12016934901475906, -0.07415939122438431, -0.043232303112745285, -0.04852093756198883, -0.07981589436531067, -0.12674665451049805, 0.005941837094724178, 0.13811564445495605, -0.020789550617337227, -0.2433665543794632, 0.08363168686628342, -0.009854561649262905, 0.1097719669342041, -0.02337859943509102, -0.16960033774375916, 0.21426616609096527, -0.06662218272686005, 0.007815335877239704, 0.03233636915683746, 0.01768030971288681, -0.06792501360177994, -0.0381234809756279, 0.037919629365205765, -0.10843587666749954, -0.033997394144535065, 0.08688630908727646, -0.014880320057272911, 0.15519268810749054, 0.03785690665245056, -0.11705833673477173, -0.10000710189342499, -0.09809473901987076, 0.03135499730706215, -0.054719582200050354, 0.05025583505630493, -0.06275150179862976, -0.07596684247255325, -0.02324725314974785, -0.01579389162361622, -0.1946016401052475, 0.050912462174892426, 0.021814469248056412, 0.07201111316680908, -0.11742760241031647, -0.06188000366091728, -0.018420590087771416, -0.06535554677248001, 0.04728201404213905, 0.053382664918899536, 0.07856930047273636, 0.0313342809677124, -0.11593137681484222, 0.07463723421096802, -0.24009136855602264, -0.00457988353446126, 0.004840291105210781, -0.13444611430168152, -0.1033327728509903, 0.10557430237531662, -0.13183043897151947, 0.05635695159435272, 0.07315480709075928, 0.021096449345350266, 0.19469457864761353, -0.02760923281311989, 0.012534511275589466, 0.06467050313949585, 0.022855274379253387, -0.03090921975672245, -0.0519275963306427, 0.021200042217969894, -0.03329699859023094, 0.014707162044942379, -0.05149662494659424, 0.07043957710266113, 0.011470397934317589, -0.06532213091850281, -0.013952110894024372, -0.024643128737807274, -0.5086413621902466, -0.2215738445520401, -0.005283997394144535, -0.11916881054639816, -0.06948663294315338, 0.12103558331727982, -0.07452094554901123, 0.04159519076347351, -0.09792864322662354, 0.24098540842533112, 0.05088728666305542, -0.15899664163589478, -0.03132590651512146, -0.3255213797092438, 0.08312468975782394, 0.028266025707125664, -0.12258418649435043, 0.13048996031284332, -0.03835655748844147, -0.018805230036377907, -0.15613165497779846, 0.12302377074956894, -0.010394196957349777, -0.016152825206518173, -0.0667843446135521, -0.08491010963916779, 0.0022235005162656307, -0.0449383445084095, 0.21777577698230743, 0.030862795189023018, 0.09073885530233383, 0.09084004163742065, -0.024732887744903564, 0.13516876101493835, -0.026823457330465317, -0.08272729814052582, 0.03178127855062485, 0.029612714424729347, -0.005039855372160673, 0.07629332691431046, -0.03179292380809784, 0.039766643196344376, 0.0738566517829895, -0.030823124572634697, 0.083761066198349, -0.13681744039058685, -0.25905027985572815, -0.1801638901233673, 0.011511130258440971, -0.09646598994731903, -0.17439553141593933, 0.0912800058722496, -0.02506815455853939, 0.0956418439745903, 0.17117846012115479, -0.03431851416826248, 0.10839761048555374, -0.09995125234127045, -0.0843924954533577, -0.2077980935573578, 0.025546584278345108, -0.13519661128520966, -0.12489815801382065, 0.07151356339454651, -0.11155872792005539, -0.09920637309551239, 0.01035376638174057, 0.09659211337566376, -0.055495865643024445, -0.09728749841451645, -0.15252697467803955, 0.06422742456197739, 0.11626935750246048, -0.02293521724641323, 0.14651718735694885, 0.22976002097129822, -0.052611008286476135, 0.06488878279924393, 0.029391726478934288, -0.014502850361168385, -0.08046041429042816, 0.027154317125678062, -0.0519665852189064, -0.06062167510390282, -0.02990570105612278, 0.08943551033735275, -0.027682214975357056, 0.11050346493721008, -0.11867686361074448, 0.06745836138725281, 0.019070705398917198, -0.12828154861927032, 0.03286000341176987, 0.0023575681261718273, 0.011584951542317867, 0.057189591228961945, -0.12304751574993134, -0.12047403305768967, -0.00930037535727024, 0.1096043586730957, -0.13493068516254425, -0.04285779967904091, 0.18011680245399475, 0.0006138360477052629, 0.19337895512580872, 0.025099391117691994, -0.05782769247889519, -0.15105469524860382, -0.014069860801100731, -0.01360949594527483, -0.10041599720716476, 0.11646409332752228, -0.03199103847146034, 0.05443736910820007, 0.031453005969524384, -0.03948651999235153, 0.047481320798397064, 0.03612425550818443, -0.058642495423555374, 0.06662514060735703, -0.2132541388273239, -0.09384361654520035, 